tree
version=v3
num_class=1
num_tree_per_iteration=1
label_index=0
max_feature_idx=8
objective=regression
feature_names=Column_0 Column_1 Column_2 Column_3 Column_4 Column_5 Column_6 Column_7 Column_8
feature_infos=[-2.4161535027122221:2.3113132296250298] [-3.1779486957152634:3.337938392483319] [-3.3063223999143139:1.5635112007502123] [-2.4008059571328828:3.9350558318214954] [-1.9034306578665026:2.7716079505202398] [-3.3939238845906341:1.1219655636240931] [-3.4246812050681923:0.65210381132576067] [-2.1768944594948287:2.3629608553645873] [-2.0594042265109276:2.2651832215800214]
tree_sizes=1829 1864 1876 1870 1878 1884 1874 1884 1868 1871 1884 1875 1701 1881 1880 1436 1529 1785 1870 1886 1626 1277 1872 1544 1804 1276 1192 1627 1894 1708 1875 1902 1884 1548 1542 1909 1634 1023 1190 936 1373 1811 1017 1370 1273 1454 1629 1812 850 1294 1280 853 1027 1553 1629 1639 1110 1895 1645 1721 1204 1546 1631 1896 1809 1360 1904 1901 1808 853 1729 1894 849 1903 846 1285 1378 1822 1913 1113 1377 1366 1293 1115 1721 1025 934 1557 1644 1113 1812 1723 1728 1720 1732 1379 1657 1894 1200 1906 1911 1916 1200 1738 1651 1109 772 1376 1643 1637 1559 1824 1461 1647 1917 1730 1380 1290 1652 1552 1201 1472 1197 1211 1299 1829 1204 856 1202 1467 1203 1199 772 1650 1040 1200 1721 1022 1541 1566 1279 1296 1382 1474 1112 1642 1467 1817 1474 1732 1560 1028 1211 1644 1294 1485 1220 1295 769 933 1216 1911 1472 1737 1211 1208 1020 1550 939 1736 1473 940 1822 1200 1468 1297 942 849 1386 854 941 851 1375 930 949 939 1216 1549 1024 1021 1290 772 1202 1115 861 1296 1643 1549 1024 1201 1029 1293 1471 1026 1024 1380 773 939 856 1197 1656 1643 1376 857 1653 861 1119 859 1117 1460 1295 1564 1658 1290 1913 1907 1901 1733 1904 1722 1913 1912 1909 1900 1730 1109 1726 1117 1388 1926 1385 1033 1913 936 1038 1285 1740 1194 1033 937 855 1381 1550 1653 1385 1821 1658 1481 1652 1046 1475 939 946 1218 770 1032 1911 1833 774 1822 1033 1922 1032 1388 1561 1651 1921 1555 1026 1821 1910 1113 948 1658 1562 1111 1191 1464 1290 1112 1194 1114 1927 1024 1468 944 939 1821 944 861 1905 1650 1820 1912 1474 860 946 858 1029 1121 1030 1914 779 1292 859 1637 769 933 1021 1112 1040 1282 1469 848 1112 1729 1645 942 1469 1821 942 1036 1216 1824 943 1122 1550 1030 1470 1306 780 1390 1120 1129 1479 1920 1568 1382 1572 1739 1205 1125 1913 1206 1283 1294 1121 1218 1558 1912 1828 1920 1919 1399 1638 1569 1032 1912 1474 1922 1730 1394 943 1832 943 1651 1741 1551 1657 1655 1749 1902 1916 1476 1376 1467 1291 1214 1122 1917 1205 1129 1304 1285 1469 1475 1824 1126 1030 854 1375 1644 941 1581 855 1197 1034 1034 1294 861 1033 1650 1287 1117 1296 1833 1916 1567 1111 1922 1292 1379 1124 941 1821 1112 1826 1910 1022 1910 1924 1817 1914 1927 1036 1208 1392 1573 1924 1213 1571 1737 858 1034 1914 771 1209 1477 1303 1752 1290 1924 1751 1644 1911 1113 1209 1654 1737 1929 1559 1386 1296 1115 1295 1027 1908 1905 1740 859 1917 1475 1124 1487 860 864 1908 1919 1125 855

Tree=0
num_leaves=20
num_cat=0
split_feature=5 6 4 6 0 6 3 6 0 0 4 7 5 3 0 0 0 4 0
split_gain=5.99092e+06 2.43679e+06 790623 340590 237412 221139 218977 105834 89682.7 85343.1 66864.3 48071.4 41963.4 41539.6 34067.4 30433.4 29002.1 28397.3 26312.3
threshold=-1.4167748505325235 0.078157635817600671 -0.30279494345319297 0.48230179688492408 -0.66777486410466158 -0.65944387487560729 -0.55723199002701562 0.50381517428014078 -0.038748890907829063 0.70867561097839438 -0.7260955199527992 0.57319764775931115 0.088521632205716475 -0.74830543165398689 0.35935940390335913 -1.7175616360034835 -0.71704000532302115 -1.383184518300751 0.90276269682082055
decision_type=2 2 2 2 2 2 2 2 2 2 2 2 2 2 2 2 2 2 2
left_child=1 5 4 -3 7 -1 16 -2 -5 -8 13 12 -11 14 -6 -9 -4 -10 -15
right_child=2 3 6 8 10 -7 9 15 17 11 -12 -13 -14 18 -16 -17 -18 -19 -20
leaf_value=99.291793579906695 91.043349950669864 93.31479367259935 88.908990265787708 90.925999197570832 88.601914789487083 95.653532451352689 87.252933336951685 89.906421112945026 89.912600701054018 86.249722209300757 87.471746889332692 86.322051812237902 87.136504677314079 89.183363258542556 87.277448605851689 88.888782102292978 87.985860711794103 88.743906762420522 88.058480288785816
leaf_weight=371 301 434 542 842 345 325 7369 348 573 672 1401 1899 2622 670 442 1888 911 328 301
leaf_count=371 301 434 542 842 345 325 7369 348 573 672 1401 1899 2622 670 442 1888 911 328 301
internal_value=88.1957 92.4592 87.572 90.8102 88.5654 97.606 87.1683 89.2856 90.1839 87.0339 87.9869 86.7233 86.9551 88.3975 87.8578 89.0479 88.3305 89.4882 88.8349
internal_weight=0 2873 19711 2177 5696 696 14015 2537 1743 12562 3159 5193 3294 1758 787 2236 1453 901 971
internal_count=22584 2873 19711 2177 5696 696 14015 2537 1743 12562 3159 5193 3294 1758 787 2236 1453 901 971
is_linear=0
shrinkage=1


Tree=1
num_leaves=20
num_cat=0
split_feature=5 6 4 6 0 0 3 4 0 4 8 4 5 6 3 3 8 0 8
split_gain=4.85485e+06 1.98171e+06 640531 258788 193650 192351 177724 94277.2 70420.4 55718.1 47157.3 44323.4 40731.1 38827.8 34180.1 27187.1 26874.5 24982.4 23900
threshold=-1.4167748505325235 0.21492124925863221 -0.30279494345319297 -0.51499691236486178 -0.59411367901822543 -0.49477244775486667 -0.57379299747190193 -0.78618473972027159 0.59798109614208028 -0.7260955199527992 0.57145979243830258 -1.4135940424745732 0.088521632205716475 0.50842518372196921 -0.74830543165398689 -1.0367811621267731 -0.24193930119206811 0.42862794951216393 1.030108303231031
decision_type=2 2 2 2 2 2 2 2 2 2 2 2 2 2 2 2 2 2 2
left_child=1 3 4 -1 7 13 16 -2 18 14 12 -7 -10 -3 17 -9 -4 -6 -8
right_child=2 5 6 -5 9 11 8 15 10 -11 -12 -13 -14 -15 -16 -17 -18 -19 -20
leaf_value=9.7806331658430601 2.2923540384754202 4.4310344343987582 0.97278278239882821 6.1412060344094384 0.2337597028759022 1.979210326033731 -0.64534819134753663 1.1797098751570509 -1.7406922597815151 -0.7087394017703974 -1.6733278734290249 0.82151727004984609 -0.90685565228873966 2.8468096492339079 0.55689609846594068 0.44009097215162118 -0.089417808556919207 -0.90056502106480107 -1.0188775590251316
leaf_weight=420 439 320 302 381 386 912 3514 750 740 1299 2152 522 2835 318 957 1476 1113 389 3359
leaf_count=420 439 320 302 381 386 912 3514 750 740 1299 2152 522 2835 318 957 1476 1113 389 3359
internal_value=0 3.83812 -0.561336 8.05934 0.332807 2.20317 -0.924733 0.954468 -1.04406 -0.213922 -1.30314 1.55866 -1.07989 3.6471 0.157387 0.689707 0.137812 -0.336025 -0.828023
internal_weight=0 2873 19711 801 5696 2072 14015 2665 12600 3031 5727 1434 3575 638 1732 2226 1415 775 6873
internal_count=22584 2873 19711 801 5696 2072 14015 2665 12600 3031 5727 1434 3575 638 1732 2226 1415 775 6873
is_linear=0
shrinkage=0.1


Tree=2
num_leaves=20
num_cat=0
split_feature=5 6 4 6 6 3 6 0 0 0 7 5 5 0 8 8 6 3 5
split_gain=3.93425e+06 1.61807e+06 519247 255001 157027 147357 130092 106553 65113 62679.7 49735.9 50153.3 33567.1 28845.9 27011.6 23924.2 23242 24068 21852.6
threshold=-1.4167748505325235 0.012080833818007824 -0.32079738176409572 0.4792284572570385 0.4792284572570385 -0.57379299747190193 -0.81541586099094998 -1.010671059635466 -0.27108572974009271 0.20129196177751138 0.30553289666751388 0.088521632205716475 -1.3067724152554929 0.09019197252787732 -1.4484656897876338 -0.24755540540585602 -2.1530869340293717 -0.019882938188779817 1.0000000180025095e-35
decision_type=2 2 2 2 2 2 2 2 2 2 2 2 2 2 2 2 2 2 2
left_child=1 6 4 -3 -2 15 -1 18 -5 16 11 -11 -9 -14 -10 -4 -7 -18 -6
right_child=2 3 5 8 7 9 -8 12 14 10 -12 -13 13 -15 -16 -17 17 -19 -20
leaf_value=9.3405043032911959 2.4800289757771647 4.2525081772607738 0.89619168795475357 2.4597434585845033 1.3546506449178137 -0.99339861708021671 6.4613449634586493 0.61161788844339071 1.4764442277082428 -1.5207602010867323 -1.4485827157412425 -0.73560751234245558 0.072731400889701633 -0.54908121580839564 0.40954192710456572 -0.091368928368079028 -0.85690987518708506 -0.33484562154455433 0.5861248802064476
leaf_weight=304 318 460 306 593 592 1566 355 540 827 1057 2846 3546 1462 1522 334 1220 1429 2315 992
leaf_count=304 318 460 306 593 592 1566 355 540 827 1057 2846 3546 1462 1522 334 1220 1429 2315 992
internal_value=0 3.45521 -0.505213 2.15855 0.327529 -0.821521 7.80166 0.193065 1.60728 -0.932588 -1.11977 -0.916196 -0.11318 -0.244504 1.17013 0.107118 -0.669844 -0.534281 0.874025
internal_weight=0 2873 19711 2214 5426 14285 659 5108 1754 12759 7449 4603 3524 2984 1161 1526 5310 3744 1584
internal_count=22584 2873 19711 2214 5426 14285 659 5108 1754 12759 7449 4603 3524 2984 1161 1526 5310 3744 1584
is_linear=0
shrinkage=0.1


Tree=3
num_leaves=20
num_cat=0
split_feature=5 6 4 6 0 3 3 4 0 4 0 0 3 7 7 6 0 8 3
split_gain=3.18826e+06 1.31423e+06 421054 212978 134444 117380 104383 66090.2 48702 40726.6 36643.7 34325.1 31755.5 26056.9 22050.1 21320.8 21282.8 19905 45662.4
threshold=-1.4167748505325235 0.31480478716500165 -0.30279494345319297 -0.51499691236486178 -0.74319310498215041 -0.55723199002701562 -1.5976298253196106 -0.59399654694171533 0.70867561097839438 -0.7260955199527992 0.50242429273637323 0.054510224155732201 -0.77605984729284827 0.6802635481960303 -0.22914376465975969 0.54069524981480299 -0.71704000532302115 1.0141960079586296 0.060500133519997411
decision_type=2 2 2 2 2 2 2 2 2 2 2 2 2 2 2 2 2 2 2
left_child=1 3 4 -1 7 16 -3 15 17 11 -8 -6 -13 14 -10 -2 -4 18 -7
right_child=2 6 5 -5 9 8 10 -9 13 -11 -12 12 -14 -15 -16 -17 -18 -19 -20
leaf_value=7.9523919284343725 2.310885499232735 2.8560711909323011 0.5971444482223901 4.8204216815483294 1.0415633285569179 -0.84300356150990086 1.5061773485704555 0.51884646073100227 -1.4907234171737458 -0.51841126515448144 0.29983667918119228 -0.60083453981174262 0.35876396164096086 -1.3879601286049399 -0.80286372349933532 1.1604108050303268 -0.19364214109628575 -0.8549665942725948 -0.15338543529046
leaf_weight=420 305 548 542 465 369 2085 1114 1721 560 1534 326 589 829 1818 2815 349 911 3504 1780
leaf_count=420 305 548 542 465 369 2085 1114 1721 560 1534 326 589 829 1818 2815 349 911 3504 1780
internal_value=0 3.11054 -0.454694 6.31408 0.270252 -0.749326 1.68196 0.844583 -0.847744 -0.140608 1.23347 0.183814 -0.0399706 -1.08238 -0.917405 1.69966 0.101546 -0.682272 -0.525526
internal_weight=0 2873 19711 885 5696 14015 1988 2375 12562 3321 1440 1787 1418 5193 3375 654 1453 7369 3865
internal_count=22584 2873 19711 885 5696 14015 1988 2375 12562 3321 1440 1787 1418 5193 3375 654 1453 7369 3865
is_linear=0
shrinkage=0.1


Tree=4
num_leaves=20
num_cat=0
split_feature=5 6 4 6 0 3 5 6 3 0 7 5 4 4 4 0 0 6 3
split_gain=2.59394e+06 1.11917e+06 304990 180602 116032 95246.8 91699.1 61712.8 56234.3 39937.2 34911.1 36724.6 30010.7 25490.6 23002.4 21313 20252.5 16228.9 15514.1
threshold=-1.3762476375357222 0.012080833818007824 -0.30279494345319297 0.4792284572570385 -0.5812736559297641 -0.51252381577856676 -2.4125863698824324 0.50227850446619804 -1.5743920480748093 0.1612175739277347 0.30553289666751388 1.0000000180025095e-35 -0.63523186172141821 -1.4848739671380125 0.044603460708552492 -1.6247215111670195 0.68813157403685643 -2.1530869340293717 -0.019882938188779817
decision_type=2 2 2 2 2 2 2 2 2 2 2 2 2 2 2 2 2 2 2
left_child=1 6 4 -3 7 14 -1 -2 -5 17 11 -11 16 -10 -4 -9 -6 -7 -19
right_child=2 3 5 8 12 9 -8 15 13 10 -12 -13 -14 -15 -16 -17 -18 18 -20
leaf_value=7.5023690375510386 2.0164297421936133 3.4520649078469448 -0.18460896153853315 2.2481749925220855 0.28376777271015585 -0.81166743376622574 5.0966150220876898 1.0957509081666215 1.5839160620315635 -1.331188765412201 -1.1835439320996071 -0.6056156379388008 -0.65748505231335475 0.69506458616167122 0.65901555140182799 0.3518769678115703 -0.41676702084777606 -0.70587101296211285 -0.25958712171904463
leaf_weight=339 304 472 1103 453 1071 1564 321 484 472 857 2904 3760 1076 1026 456 1881 670 1223 2148
leaf_count=339 304 472 1103 453 1071 1564 321 484 472 857 2904 3760 1076 1026 456 1881 670 1223 2148
internal_value=0 2.69405 -0.427017 1.69824 0.205052 -0.67443 6.34178 0.677409 1.27238 -0.766651 -0.911736 -0.740554 -0.24257 0.976 0.0624114 0.50451 0.0140921 -0.545401 -0.42166
internal_weight=0 3083 19501 2423 5486 14015 660 2669 1951 12456 7521 4617 2817 1498 1559 2365 1741 4935 3371
internal_count=22584 3083 19501 2423 5486 14015 660 2669 1951 12456 7521 4617 2817 1498 1559 2365 1741 4935 3371
is_linear=0
shrinkage=0.1


Tree=5
num_leaves=20
num_cat=0
split_feature=5 6 4 6 0 0 0 8 6 2 7 5 3 0 0 0 0 7 6
split_gain=2.1021e+06 915794 250364 189254 98492.5 88201.2 50768.2 48546.1 40638.4 32470.7 31571.7 37767.4 20454.4 20027.3 17717.7 17463.5 16685.2 15675.1 13268.4
threshold=-1.3762476375357222 -0.19075958162263398 -0.39523989694161249 0.4792284572570385 0.067755721657513243 -0.59411367901822543 -0.45841490869385509 1.2238638986067345 0.51149852334987223 -0.075322710310363111 0.6802635481960303 -0.027270404927994336 0.70611758976077199 0.6105508029549952 0.66258668599770687 -0.81050185759324245 -0.71704000532302115 -1.4362465079981346 -1.2464517438022986
decision_type=2 2 2 2 2 2 2 2 2 2 2 2 2 2 2 2 2 2 2
left_child=1 -1 5 -3 7 8 -5 9 -2 15 11 -6 -9 -8 -7 -4 -11 -16 -12
right_child=2 3 4 6 10 14 13 12 -10 16 18 -13 -14 -15 17 -17 -18 -19 -20
leaf_value=6.1043245472107923 1.8503102955308934 3.2054802167832541 0.97398871259223785 2.0750981744914525 -1.2193763009962202 0.095906009393700559 1.047596667900371 -0.34178701115747256 0.59679490893648424 0.0079838155168088492 -0.64351211983079248 -0.5502151792178811 -0.89879500759536235 0.1348274718384129 0.084801887610704646 0.11682618297688702 -0.45575426328228263 -0.79754321787256188 -1.2026906392458125
leaf_weight=554 308 578 337 451 1030 1451 1199 1272 1601 1385 536 4666 1372 301 317 802 1763 550 2111
leaf_count=554 308 578 337 451 1030 1451 1199 1272 1601 1385 536 4666 1372 301 317 802 1763 550 2111
internal_value=0 2.42531 -0.384325 1.61729 -0.572811 0.296733 1.14538 -0.294144 0.799901 -0.0862559 -0.804252 -0.671411 -0.631055 0.864646 -0.11782 0.37107 -0.251789 -0.475207 -1.08975
internal_weight=0 3083 19501 2529 15274 4227 1951 6931 1909 4287 8343 5696 2644 1500 2318 1139 3148 867 2647
internal_count=22584 3083 19501 2529 15274 4227 1951 6931 1909 4287 8343 5696 2644 1500 2318 1139 3148 867 2647
is_linear=0
shrinkage=0.1


Tree=6
num_leaves=20
num_cat=0
split_feature=5 6 4 3 3 6 0 0 0 4 8 5 5 7 5 0 0 7 1
split_gain=1.70327e+06 742470 202832 151196 81146.2 77634.4 60847.7 46965.3 41049.4 34475.4 23971.5 31331.7 21635.2 17541.4 20767.1 14687.9 14279 15662.8 13536.2
threshold=-1.3762476375357222 -0.15848951552980023 -0.39523989694161249 -1.5976298253196106 -0.72042009896022552 0.4899851459546381 -0.72873118424040961 -1.1273125325338043 0.09019197252787732 -1.4848739671380125 0.51249069819352255 -0.027270404927994336 -0.27622328476546981 1.4881541078938341 -0.073587219781476018 0.50242429273637323 0.57351747320511703 -1.4362465079981346 0.24530443826428061
decision_type=2 2 2 2 2 2 2 2 2 2 2 2 2 2 2 2 2 2 2
left_child=1 -1 5 6 12 -2 -3 -7 13 -5 11 -10 -4 14 -6 -11 -9 -18 -14
right_child=2 3 4 9 8 7 -8 16 10 15 -12 -13 18 -15 -16 -17 17 -19 -20
leaf_value=5.4352168677674308 1.7985253797534622 3.5496497931305293 0.92555704968044172 1.5295929970570896 -0.72238796355897472 0.68048237017868818 1.7269347032028681 0.091565754922588227 -1.1167347067048958 0.84069914252948463 -0.96827992920146055 -0.4910889581629671 0.36466654227581757 -0.61155876071110149 -0.12429688132987807 0.050896821695820486 0.14693841622995862 -0.68397626043245374 -0.31779095135340396
leaf_weight=571 306 370 312 636 731 1161 369 1779 985 804 2862 4279 528 2124 2809 333 355 626 644
leaf_count=571 306 370 312 636 731 1161 369 1779 985 804 2862 4279 528 2124 2809 333 355 626 644
internal_value=0 2.18319 -0.345904 1.4421 -0.515557 0.267103 2.64309 0.147161 -0.591166 0.940312 -0.735222 -0.60835 0.186958 -0.3844 -0.24797 0.609633 -0.0773473 -0.383445 -0.0102869
internal_weight=0 3083 19501 2512 15274 4227 739 3921 13790 1773 8126 5264 1484 5664 3540 1137 2760 981 1172
internal_count=22584 3083 19501 2512 15274 4227 739 3921 13790 1773 8126 5264 1484 5664 3540 1137 2760 981 1172
is_linear=0
shrinkage=0.1


Tree=7
num_leaves=20
num_cat=0
split_feature=5 6 4 6 6 0 3 0 0 2 4 0 4 3 8 3 8 3 3
split_gain=1.38017e+06 617124 164477 117779 73997.4 64370.1 53855.6 51261.6 23860.9 18561.3 18423.3 15918.7 24238.5 14637.2 10804 12924 10686.8 28633 27691.8
threshold=-1.3762476375357222 0.31480478716500165 -0.27627783837362002 -0.81541586099094998 0.47461844781521006 -0.49477244775486667 -0.57379299747190193 -1.2167128827639384 0.70867561097839438 -0.18060545836937425 -1.3510720607731945 -0.38272635154081985 -0.53001490807999285 -1.1070181620807784 0.95803496582074488 0.13656294241706529 1.0141960079586296 0.060500133519997411 0.38203242035510693
decision_type=2 2 2 2 2 2 2 2 2 2 2 2 2 2 2 2 2 2 2
left_child=1 3 4 -1 -2 -3 9 13 16 -4 -7 -9 -13 -6 15 -10 17 -8 -18
right_child=2 5 6 -5 7 10 8 11 14 -11 -12 12 -14 -15 -16 -17 18 -19 -20
leaf_value=5.7859822448746101 1.6332615131182877 1.9554920841229042 0.58088182737427529 3.3456534053997049 1.0750131749143941 0.92762024645934149 -0.58044849848957381 0.11887003668037435 -0.93114351484476154 -0.19534569304019833 0.14125378006689193 -0.067206526645429976 -0.7280403842765788 0.36082069417644791 -0.9529225209371891 -0.51516365267992503 -0.14970070518220888 -0.020584274467070188 -0.7593414248357524
leaf_weight=304 310 590 513 586 430 1207 2029 1684 1052 768 396 1750 812 864 1526 2596 1075 1661 2431
leaf_count=304 310 590 513 586 430 1207 2029 1684 1052 768 396 1750 812 864 1526 2596 1075 1661 2431
internal_value=0 1.96529 -0.311319 4.18476 0.132303 1.06305 -0.501425 0.0480349 -0.565339 0.11572 0.733568 -0.119915 -0.276853 0.598796 -0.729176 -0.635345 -0.447453 -0.328508 -0.572511
internal_weight=0 3083 19501 890 5850 2193 13651 5540 12370 1281 1603 4246 2562 1294 5174 3648 7196 3690 3506
internal_count=22584 3083 19501 890 5850 2193 13651 5540 12370 1281 1603 4246 2562 1294 5174 3648 7196 3690 3506
is_linear=0
shrinkage=0.1


Tree=8
num_leaves=20
num_cat=0
split_feature=5 6 0 6 7 0 8 3 6 6 8 5 3 0 3 7 3 2 0
split_gain=1.11976e+06 509179 128235 100159 93662 51079.7 39076.5 37151.1 37006.9 30887.4 18705 25798.7 20784.9 16854.4 15332.6 13235.5 11680.4 11271.1 11120.4
threshold=-1.3588788319656684 0.35168486269966376 -0.53221125191806429 -0.81541586099094998 -0.077031845136860205 -0.53221125191806429 -0.62009031825382799 -1.6634156454070059 -1.8964630751006972 0.51149852334987223 0.51249069819352255 0.10010083591909018 0.35467075588094638 0.64988182104701886 -0.6642566824080014 -1.5367839998716393 0.64412836426548492 0.25324050410339255 -1.500639582784262
decision_type=2 2 2 2 2 2 2 2 2 2 2 2 2 2 2 2 2 2 2
left_child=1 3 4 -1 9 -3 14 -5 16 -2 11 -8 -12 15 -4 -7 -6 -11 -10
right_child=2 5 6 7 8 13 10 -9 18 17 12 -13 -14 -15 -16 -17 -18 -19 -20
leaf_value=5.1963224139868052 1.707153731182415 1.7837671387352629 -0.33611781894971093 3.7515566112067646 -0.17256709747631166 1.0778154933782533 -0.7025764801950598 2.1938445663806938 0.4352984478413735 0.8861146190693534 -0.18545314700332644 -0.31163203461523348 -0.81689971726538269 -0.011227208743637434 0.26823655264751861 0.45852473389207121 -0.73259604377078036 0.24059384553394186 -0.021239895520064483
leaf_weight=305 301 528 785 311 605 786 2509 314 666 539 626 5165 3136 308 900 619 971 544 2666
leaf_count=305 301 528 785 311 605 786 2509 314 666 539 626 5165 3136 308 900 619 971 544 2666
internal_value=0 1.74158 -0.284977 3.70743 0.0861631 0.924474 -0.462945 2.97372 -0.118754 0.812409 -0.529182 -0.439525 -0.711904 0.658726 -0.0133496 0.805495 -0.517856 0.562385 0.0701162
internal_weight=0 3171 19413 930 6292 2241 13121 625 4908 1384 11436 7674 3762 1713 1685 1405 1576 1083 3332
internal_count=22584 3171 19413 930 6292 2241 13121 625 4908 1384 11436 7674 3762 1713 1685 1405 1576 1083 3332
is_linear=0
shrinkage=0.1


Tree=9
num_leaves=20
num_cat=0
split_feature=5 4 6 6 3 4 3 0 0 8 0 8 5 5 7 0 1 3 0
split_gain=909255 286468 209420 132609 61092.1 55506.9 42101.2 29903.4 28319.6 15414.4 13728.4 12522.4 21214.5 11965.3 21616 11749.1 11466.9 11064.9 9601.8
threshold=-1.9436286194909023 -0.44000271652547912 -0.19075958162263398 0.48230179688492408 -0.80198142416310525 -1.4654118716667663 -1.1622651592487001 0.18926288751568968 0.78132311003153088 -0.31026856912649459 -1.6550577551902315 1.1751909954205677 -0.073587219781476018 -0.044639210498048316 0.19585563280550952 -0.17410976588776625 1.0000000180025095e-35 0.49200274647134962 -0.84915708499639975
decision_type=2 2 2 2 2 2 2 2 2 2 2 2 2 2 2 2 2 2 2
left_child=2 3 -1 6 9 15 -2 11 10 -3 -7 12 -6 -9 -15 -5 -11 -13 -18
right_child=1 4 -4 5 7 8 -8 13 -10 16 -12 17 -14 14 -16 -17 18 -19 -20
leaf_value=4.2731647354933724 2.6516354847086383 0.8168090297469025 1.514100054037262 1.6130314251663638 -0.56204348627672074 0.86998803817292303 1.0114542137698403 -0.89264920493210553 -0.36928908873893573 0.49624040821482512 0.222379935235506 -0.18744739236452468 -0.013615464468727434 -0.35625674628253035 -0.71512378501382168 0.75281127273000381 0.23601254346478023 -0.59093983451904586 -0.51076329023881284
leaf_weight=512 315 365 597 305 936 364 314 937 800 395 3190 1144 2853 3890 2957 337 310 1678 385
leaf_count=512 315 365 597 305 936 364 314 937 800 395 3190 1144 2853 3890 2957 337 310 1678 385
internal_value=0 -0.144511 2.7906 0.468525 -0.362087 0.296057 1.83575 -0.424503 0.167936 0.255294 0.288934 -0.268044 -0.149207 -0.557333 -0.511322 1.16336 0.0666879 -0.427494 -0.177809
internal_weight=0 21475 1109 5625 15850 4996 629 14395 4354 1455 3554 6611 3789 7784 6847 642 1090 2822 695
internal_count=22584 21475 1109 5625 15850 4996 629 14395 4354 1455 3554 6611 3789 7784 6847 642 1090 2822 695
is_linear=0
shrinkage=0.1


Tree=10
num_leaves=20
num_cat=0
split_feature=5 6 0 7 5 0 6 4 7 8 7 0 3 3 2 6 6 2 4
split_gain=743496 339897 91848.4 83369 77045.5 36972 29653.5 27215.1 19736.9 18102.5 11906.1 12056.1 13850.7 11966.3 11889.6 9017.45 8525.97 9074.37 7975.58
threshold=-1.3588788319656684 0.35168486269966376 -0.076458011346573415 -1.4969607076360301 -0.39780492375586751 -0.74319310498215041 0.51303519316381507 -0.21107981854494484 0.26995306999799434 -1.3885605781738894 -1.4362465079981346 0.70867561097839438 0.13656294241706529 1.0000000180025095e-35 0.20908742064400634 -1.2925518382206176 -2.6724813311425097 0.34919661190634721 -1.5245279866606769
decision_type=2 2 2 2 2 2 2 2 2 2 2 2 2 2 2 2 2 2 2
left_child=1 3 4 -1 6 -3 -2 -6 10 18 -4 13 -13 -12 -8 -10 -9 -18 -7
right_child=2 5 8 -5 7 9 14 16 15 -11 11 12 -14 -15 -16 -17 17 -19 -20
leaf_value=3.7278755727058241 1.5703908328545615 1.7455026345136009 0.19329485374130309 1.7407403583725594 0.11782323771867116 1.0848667705642288 0.83819920724207497 -0.5938794690087974 -0.27512602806091307 -0.099847154224997181 -0.37948893351453239 -0.7399595710310849 -0.3405056652890508 0.0095491886934194053 0.1474125595139176 -0.70908849156990472 -0.050498150356515517 -0.36338167518028364 0.58403872962358638
leaf_weight=600 308 320 399 330 2963 441 443 700 584 321 2059 1402 2286 1283 569 2703 1780 1934 1159
leaf_count=600 308 320 399 330 2963 441 443 700 584 321 2059 1402 2286 1283 569 2703 1780 1934 1159
internal_value=0 1.41923 -0.232107 3.02539 0.00934401 0.751629 0.712669 -0.116585 -0.428048 0.585247 -0.337694 -0.367855 -0.492518 -0.230178 0.450331 -0.632094 -0.273928 -0.213481 0.722671
internal_weight=0 3171 19413 930 8697 2241 1320 7377 10716 1921 7429 7030 3688 3342 1012 3287 4414 3714 1600
internal_count=22584 3171 19413 930 8697 2241 1320 7377 10716 1921 7429 7030 3688 3342 1012 3287 4414 3714 1600
is_linear=0
shrinkage=0.1


Tree=11
num_leaves=20
num_cat=0
split_feature=5 6 0 3 5 0 4 6 3 6 0 4 2 2 0 5 2 4 4
split_gain=602459 293189 76857.2 75164 60114.3 29348.6 25108.3 22187.1 16721.6 15634.5 15256.9 13788.4 13406.9 11883.1 10244 8819.74 8415.51 8381.16 7862.66
threshold=-1.3588788319656684 -0.25529971380828398 -0.71704000532302115 -1.5976298253196106 -0.36306731261575292 -0.72873118424040961 -0.7260955199527992 -1.8104095655198129 -0.6642566824080014 0.52840189130324311 0.58473559864029923 -1.543503529745142 -0.41230435282041034 -1.1438692475118077 0.33631494141301554 -0.1199040346349577 0.76515778107910992 -0.21107981854494484 -1.2829547266238326
decision_type=2 2 2 2 2 2 2 2 2 2 2 2 2 2 2 2 2 2 2
left_child=1 -1 4 5 9 -3 8 -6 14 -2 12 -5 -8 -12 -4 -14 -9 -18 -13
right_child=2 3 6 11 7 -7 10 16 -10 -11 13 18 15 -15 -16 -17 17 -19 -20
leaf_value=3.4292431379118087 1.4369094772061501 2.2911931856186727 0.17538937784318817 1.0992373447676118 -0.35621902850446308 1.0487514836723528 0.0029238600272735032 0.27815896326023964 0.39310591363924841 0.56165379900661561 -0.30632597316881377 0.49662087861181786 -0.59841486149629952 -0.59437215464019055 -0.57111231375501892 -0.27625645327483223 0.10638844119909574 -0.45186748256854736 -0.060062774562829872
leaf_weight=527 302 389 306 324 1455 377 1422 1573 745 633 2274 1235 1077 3886 458 4039 851 392 319
leaf_count=527 302 389 306 324 1455 377 1422 1573 745 633 2274 1235 1077 3886 458 4039 851 392 319
internal_value=0 1.27758 -0.208899 0.84758 0.119781 1.68187 -0.32934 -0.0392729 0.0562656 0.84559 -0.375165 0.506576 -0.268697 -0.488105 -0.272282 -0.34418 0.124558 -0.0698882 0.382382
internal_weight=0 3171 19413 2644 5206 766 14207 4271 1509 935 12698 1878 6538 6160 764 5116 2816 1243 1554
internal_count=22584 3171 19413 2644 5206 766 14207 4271 1509 935 12698 1878 6538 6160 764 5116 2816 1243 1554
is_linear=0
shrinkage=0.1


Tree=12
num_leaves=18
num_cat=0
split_feature=5 8 0 3 0 4 0 6 8 0 3 8 3 6 8 3 5
split_gain=489925 224377 82497 77710.8 35574.2 29157.3 25983.5 23295.1 13816.8 11332 11632 9220.15 8470.24 7426.11 6992.96 8267.08 2979.31
threshold=-2.2331087123251794 -1.3295914839291105 -0.95390464177068945 -1.0367811621267731 0.20129196177751138 -0.84846344522825967 -1.5220080843662174 0.50227850446619804 1.2238638986067345 0.054510224155732201 -0.82908125452746517 0.9758192958310753 0.060500133519997411 -1.2925518382206176 -0.19888250221968926 -1.5262800303989532 -1.6715173322266861
decision_type=2 2 2 2 2 2 2 2 2 2 2 2 2 2 2 2 2
left_child=-1 2 -2 6 5 -5 -3 -4 -7 16 -11 12 -6 -13 15 -8 -9
right_child=1 3 7 4 11 8 14 9 -10 10 -12 13 -14 -15 -16 -17 -18
leaf_value=2.950681301636557 2.1863727876498595 1.2872033308638207 1.3496696603737404 0.84813618265214519 -0.47891186869190838 -0.056875131116037418 -0.051802175703739364 0.47653508698418023 -0.32911569522593614 -0.051907367900421379 0.56939111024943967 -0.20090811318398394 -0.25080349473346292 -0.67708910270851042 -0.15337009380721758 0.55268963230935175 0.87296183453652798
leaf_weight=548 360 302 323 304 2689 5620 314 310 2789 639 569 410 4136 1648 309 807 507
leaf_count=548 360 302 323 304 2689 5620 314 310 2789 639 569 410 4136 1648 309 807 507
internal_value=0 -0.0735981 0.778727 -0.193049 -0.255963 -0.112376 0.445893 0.562066 -0.147197 0.435834 0.24097 -0.396774 -0.340734 -0.582367 0.267443 0.383472 0.723309
internal_weight=0 22036 2708 19328 17596 8713 1732 2348 8409 2025 1208 8883 6825 2058 1430 1121 817
internal_count=22584 22036 2708 19328 17596 8713 1732 2348 8409 2025 1208 8883 6825 2058 1430 1121 817
is_linear=0
shrinkage=0.1


Tree=13
num_leaves=20
num_cat=0
split_feature=4 6 4 6 3 3 0 5 5 3 5 3 0 7 1 6 4 2 7
split_gain=401298 156689 96908.2 92704.9 29798.5 29035.4 18725.9 15079.8 18634.6 13340.9 12854.4 12630.4 11368.2 14178.2 9153.01 8518.58 6052.24 3539.43 3304.93
threshold=-1.4654118716667663 -0.34596323283099656 -0.39523989694161249 0.31480478716500165 -1.5976298253196106 -0.73547556027375849 0.79308186801780622 -0.044639210498048316 0.59221699373736114 -1.0505929114187538 -0.32832970147563839 0.048586681524071272 -1.7456272233121046 -1.4786811636590296 0.30858083630456429 0.52993856111719462 1.4979354400238674 0.46942992936458083 -1.4362465079981346
decision_type=2 2 2 2 2 2 2 2 2 2 2 2 2 2 2 2 2 2 2
left_child=1 -1 3 -2 -3 10 12 15 11 -6 -4 -9 -5 -14 -12 -7 -10 -16 -8
right_child=2 4 5 6 9 7 18 8 16 -11 14 -13 13 -15 17 -17 -18 -19 -20
leaf_value=3.5678116116562104 1.6121658465897299 1.6275885014111324 0.73588768393465476 0.78674430270961426 0.21366106192795886 -0.093794607006719308 -0.11685350314838686 -0.28508071575307209 -0.41024442641083303 1.0372840177197502 0.31630492769386043 0.049763957916939605 0.57267223369516707 0.072008211838185648 -0.003348072545429061 -0.66976014001012141 -0.21571722040042782 -0.48397111521463004 -0.51754522863730823
leaf_weight=302 450 525 318 306 368 313 408 1976 5177 423 546 2618 678 3390 303 1438 2320 309 416
leaf_count=302 450 525 318 306 368 313 408 1976 5177 423 546 2618 678 3390 303 1438 2320 309 416
internal_value=0 1.51687 -0.117169 0.236862 1.04386 -0.247713 0.117512 -0.29267 -0.252911 0.65486 0.17381 -0.0942922 0.199898 0.155572 0.0189559 -0.566916 -0.350083 -0.246409 -0.319527
internal_weight=0 1618 20966 5648 1316 15318 5198 13842 12091 791 1476 4594 4374 4068 1158 1751 7497 612 824
internal_count=22584 1618 20966 5648 1316 15318 5198 13842 12091 791 1476 4594 4374 4068 1158 1751 7497 612 824
is_linear=0
shrinkage=0.1


Tree=14
num_leaves=20
num_cat=0
split_feature=5 8 0 0 7 0 6 8 4 2 6 2 3 0 2 0 2 8 3
split_gain=329513 147533 59124.3 54375.7 34274.9 17150.8 15873.7 14064.3 13619.1 12090.3 9944.06 8946.16 7722.37 9917.32 6939.04 5885.9 5181.72 5062.76 3445.29
threshold=-2.2331087123251794 -1.3295914839291105 -0.95390464177068945 -0.9166009957452651 -0.048959688315037095 0.58473559864029923 0.50227850446619804 1.7967065284131631 -0.95003125596882665 0.23315504287780178 0.51610853279170066 -0.84632497147774777 -0.81507312965313405 -0.025773709681594439 0.16839252963911341 1.1775391909138937 0.57076544765230242 0.25789397383510965 0.92867658309126289
decision_type=2 2 2 2 2 2 2 2 2 2 2 2 2 2 2 2 2 2 2
left_child=-1 2 -2 4 10 8 -4 16 -5 -10 -3 15 13 -8 -12 -7 -6 -13 -9
right_child=1 3 6 5 7 11 12 18 9 -11 14 17 -14 -15 -16 -17 -18 -19 -20
leaf_value=2.4199512768367164 1.8224907013208416 1.1429145503226201 1.0975687825362441 0.37068723238141837 0.31390750131640688 -0.0380801136399209 0.53354212419867209 -0.14035418401931937 -0.040857972386405178 -0.28935095920989545 0.81497482441172198 -0.3953661692382755 0.57886003769239924 -0.052882446378680725 0.17792413104638383 -0.3319780033073314 0.0055713933313637394 -0.65799625707254772 -0.53069090091821436
leaf_weight=548 360 310 323 474 945 979 479 465 3483 4472 307 2491 824 722 386 2243 1286 1046 441
leaf_count=548 360 310 323 474 945 979 479 465 3483 4472 307 2491 824 722 386 2243 1286 1046 441
internal_value=0 -0.0602878 0.630844 -0.157148 0.164084 -0.244716 0.447441 0.00132455 -0.14953 -0.18057 0.672625 -0.36338 0.343251 0.181253 0.460906 -0.242717 0.136258 -0.473198 -0.330728
internal_weight=0 22036 2708 19328 4140 15188 2348 3137 8429 7955 1003 6759 2025 1201 693 3222 2231 3537 906
internal_count=22584 22036 2708 19328 4140 15188 2348 3137 8429 7955 1003 6759 2025 1201 693 3222 2231 3537 906
is_linear=0
shrinkage=0.1


Tree=15
num_leaves=15
num_cat=0
split_feature=5 4 3 0 6 0 4 3 0 2 6 2 1 1
split_gain=266923 128527 54807.4 40066 33218.8 27251.6 24511.1 16907.1 12266.4 11658.6 10192 7799.9 5515.44 4247.3
threshold=-2.4125863698824324 -1.4763593003693425 -1.0786746196948658 -0.95390464177068945 0.48537513651280967 0.77030772180300888 -0.91852698892474627 -0.80198142416310525 -1.3169461577366011 -1.4409943487028993 0.51918187241958635 -2.3390764497636756 -1.2100527166623318 -0.43491684066881747
decision_type=2 2 2 2 2 2 2 2 2 2 2 2 2 2
left_child=-1 3 4 -2 -3 6 7 -4 -6 -8 -5 -7 -13 -10
right_child=1 2 5 10 8 11 9 -9 13 -11 -12 12 -14 -15
leaf_value=2.6739312036810521 1.9281289222253666 1.3465919871836209 -0.20212706195864272 1.0445651276139087 0.69276181893016719 0.11812222990175258 0.37315581272873616 0.55989927256621153 0.31126586112471144 -0.14599557768902471 0.35988814764258226 -0.68843797930559403 -0.3383016567409366 -0.047137192521341242
leaf_weight=366 309 300 422 346 416 347 449 935 506 11207 587 496 4873 950
leaf_count=366 309 300 422 346 416 347 449 935 506 11207 587 496 4873 950
internal_value=0 -0.0451939 -0.103941 0.942718 0.371464 -0.15909 -0.0791327 0.32295 0.214557 -0.125967 0.614645 -0.341076 -0.37077 0.0775459
internal_weight=0 22143 20901 1242 2172 18729 13013 1357 1872 11656 933 5716 5369 1456
internal_count=22509 22143 20901 1242 2172 18729 13013 1357 1872 11656 933 5716 5369 1456
is_linear=0
shrinkage=0.1


Tree=16
num_leaves=16
num_cat=0
split_feature=5 4 3 0 6 0 8 1 3 0 6 2 7 1 3
split_gain=216332 104164 44548.7 32479.4 23878 23248.4 18124.4 17964.2 15073.4 10698.8 8261.99 6938.41 6463.39 4471.27 1810.36
threshold=-2.4125863698824324 -1.4763593003693425 -1.1070181620807784 -0.95390464177068945 0.49305848558254112 0.66258668599770687 0.880345524196671 2.0486817824124537 0.38203242035510693 -1.2023117831841958 0.51918187241958635 -1.7433242041941879 -1.4362465079981346 -0.3400022436083831 0.71704916384494621
decision_type=2 2 2 2 2 2 2 2 2 2 2 2 2 2 2
left_child=-1 3 4 -2 -3 6 7 -4 -8 -6 -5 14 -13 -11 -7
right_child=1 2 5 10 9 11 8 -9 -10 13 -12 12 -14 -15 -16
leaf_value=2.4072666350406995 1.7359380061426877 1.1690375349414155 -0.013357784490108996 0.94040963548619405 0.60778325196421423 -0.14567651135109114 0.048178418558665309 0.7247243654395592 -0.39395871721528142 0.30419032602576185 0.32396053714379924 0.07398546491909698 -0.37155298399096726 -0.092879761885994547 0.14073391858537829
leaf_weight=366 309 304 8543 346 480 827 1134 342 2407 444 587 348 4991 781 300
leaf_count=366 309 304 8543 346 480 827 1134 342 2407 444 587 348 4991 781 300
internal_value=0 -0.0406505 -0.0935373 0.848714 0.354046 -0.14115 -0.0611184 0.0151307 -0.252391 0.208134 0.553331 -0.294917 -0.342504 0.0511686 -0.0693788
internal_weight=0 22143 20901 1242 2009 18892 12426 8885 3541 1705 933 6466 5339 1225 1127
internal_count=22509 22143 20901 1242 2009 18892 12426 8885 3541 1705 933 6466 5339 1225 1127
is_linear=0
shrinkage=0.1


Tree=17
num_leaves=19
num_cat=0
split_feature=5 8 3 0 5 6 6 6 2 3 1 7 3 7 6 2 1 3
split_gain=175330 87443.9 43366 35465.8 27453.5 22686.9 19152.8 11447.5 10663.3 8821.26 8533.79 7597.63 12019.2 6813.05 6412.52 5001.52 2814.7 2659.1
threshold=-2.4125863698824324 -1.3557999702601238 -1.5976298253196106 -0.3958366909048277 -0.36306731261575292 0.4792284572570385 0.43773837228054796 -2.4450541986787657 0.6584777835435357 -0.85447916317812111 1.1786313093585135 0.26995306999799434 0.28122628808188455 -1.5367839998716393 -1.2925518382206176 0.48766403503372585 0.0080179456132036097 0.64412836426548492
decision_type=2 2 2 2 2 2 2 2 2 2 2 2 2 2 2 2 2 2
left_child=-1 2 6 4 5 -3 -2 17 -7 13 11 12 -5 -4 -13 -9 -11 -6
right_child=1 3 9 10 7 8 -8 15 -10 16 -12 14 -14 -15 -16 -17 -18 -19
leaf_value=2.1671959462380217 1.7174567820589233 1.211866691223328 0.29131440574121553 -0.26292080943710405 -0.10760777522592586 0.44427524583784339 0.69666708551686318 0.15034031167464509 -0.24764464390941729 0.32691041377530605 0.23579698507275554 -0.10536968248521109 -0.0079013532189298463 -0.2431302517756104 -0.4204272119258991 -0.055548095974316938 0.68074959334113627 -0.45043353897769889
leaf_weight=366 328 313 491 5380 342 779 422 2099 311 596 408 838 2815 462 2831 2692 364 672
leaf_count=366 328 313 491 5380 342 779 422 2099 311 596 408 838 2815 462 2831 2692 364 672
internal_value=0 -0.0365626 0.5008 -0.110044 0.0660103 0.462817 1.14478 -0.0299565 0.24681 0.247856 -0.213447 -0.228915 -0.175333 0.0322404 -0.348516 0.0346669 0.461643 -0.335026
internal_weight=0 22143 2663 19480 7208 1403 750 5805 1090 1913 12272 11864 8195 953 3669 4791 960 1014
internal_count=22509 22143 2663 19480 7208 1403 750 5805 1090 1913 12272 11864 8195 953 3669 4791 960 1014
is_linear=0
shrinkage=0.1


Tree=18
num_leaves=20
num_cat=0
split_feature=5 4 6 3 3 0 7 8 3 3 3 8 7 5 5 0 3 7 2
split_gain=142099 72411.8 48319.2 26011.8 21966 16433.3 13814.6 11686.3 12237.8 11598.2 10925.4 10710.9 7389.98 7639.84 7286.26 6317.1 5396.83 5186.77 3502.5
threshold=-2.4125863698824324 -0.63523186172141821 0.4792284572570385 -0.91823576891456171 -1.2845416885255698 0.18926288751568968 -0.19258467670575882 0.880345524196671 0.39198211652752896 0.060500133519997411 -0.82908125452746517 -0.145529512188698 -0.95640847860186373 -1.78151976750371 -0.87834187786076456 1.0458951647227215 -1.327220648423064 -1.5139345699003879 0.18840812839087609
decision_type=2 2 2 2 2 2 2 2 2 2 2 2 2 2 2 2 2 2 2
left_child=-1 2 4 11 -2 12 -5 9 -9 -8 17 16 13 -4 -14 -12 -3 -7 -18
right_child=1 3 5 6 -6 10 7 8 -10 -11 15 -13 14 -15 -16 -17 18 -19 -20
leaf_value=1.9510668274735885 1.3572365766431949 0.045647808803622458 0.092688355454140239 -0.43532061170962449 0.37700861737367852 -0.0051978470256360265 -0.18637512252169453 0.025887526394369455 -0.33435511350220459 0.046899402954357905 0.27372558884495918 -0.27054255456099974 -0.22672576741445499 0.63125734307464643 0.43106973878043536 -0.24955196531309234 0.75471285312283398 -0.52980591139776345 0.3538012606081411
leaf_weight=366 547 330 359 1731 394 300 4038 1223 4116 4512 902 303 357 992 317 309 370 506 537
leaf_count=366 547 330 359 1731 394 300 4038 1223 4116 4512 902 303 357 992 317 309 370 506 537
internal_value=0 -0.032889 0.302656 -0.130338 0.947648 0.152302 -0.168999 -0.135779 -0.251845 -0.0632806 -0.0497339 0.261653 0.353464 0.488318 0.0828331 0.14011 0.392127 -0.334791 0.518
internal_weight=0 22143 4983 17160 941 4042 15620 13889 5339 8550 2017 1540 2025 1351 674 1211 1237 806 907
internal_count=22509 22143 4983 17160 941 4042 15620 13889 5339 8550 2017 1540 2025 1351 674 1211 1237 806 907
is_linear=0
shrinkage=0.1


Tree=19
num_leaves=20
num_cat=0
split_feature=3 6 4 0 3 5 4 0 4 4 3 3 5 3 3 4 1 2 6
split_gain=117711 74790.9 35343.5 20640 16848.6 14932.4 13143 13136.4 15746.9 10832.6 10384.6 9223.11 8517.25 7666.99 7296.25 6162.01 6074.96 5964.65 5041.99
threshold=-1.5976298253196106 0.012080833818007824 -0.46481688825131823 0.18926288751568968 -0.80198142416310525 -0.10832483092159056 -1.2347860403324982 -1.7456272233121046 -1.543503529745142 -0.1037950172597001 -0.42363113550127057 -0.14687248144205994 -1.8162573786438245 -0.82908125452746517 -1.2592092384023641 -1.2194596401488915 -0.039439352917022573 0.55406831640737597 0.52993856111719462
decision_type=2 2 2 2 2 2 2 2 2 2 2 2 2 2 2 2 2 2 2
left_child=1 -1 3 7 14 18 -3 -2 -9 11 -11 -7 -10 -5 -4 -15 -16 -18 -6
right_child=2 6 4 13 5 9 -8 8 12 10 -12 -13 -14 15 16 -17 17 -19 -20
leaf_value=2.1955956434339718 0.960189761183734 0.76102702634686492 -0.23505429063522476 -0.30679856664385297 -0.081252572993865083 -0.24184051119215677 -0.024606241330330646 0.95257499455984851 -0.29807847857663311 0.28580594632548578 -0.19124149942353802 0.19562067767101543 0.25892538621207617 0.31759093522711046 0.59102628392699574 -0.10332779771856992 0.36353154285946926 -0.20261229843599723 -0.5356811267405337
leaf_weight=344 308 563 324 803 301 679 342 300 316 477 10120 1654 2054 615 447 798 444 319 1301
leaf_count=344 308 563 324 803 301 679 342 300 316 477 10120 1654 2054 615 447 798 444 319 1301
internal_value=0 0.942608 -0.0559182 0.170825 -0.129228 -0.162502 0.464436 0.342741 0.271182 -0.126799 -0.169743 0.0682522 0.184564 -0.0602566 0.185878 0.0799697 0.298691 0.126879 -0.450402
internal_weight=0 1249 21260 5194 16066 14532 905 2978 2670 12930 10597 2333 2370 2216 1534 1413 1210 763 1602
internal_count=22509 1249 21260 5194 16066 14532 905 2978 2670 12930 10597 2333 2370 2216 1534 1413 1210 763 1602
is_linear=0
shrinkage=0.1


Tree=20
num_leaves=17
num_cat=0
split_feature=5 4 0 3 6 0 3 8 7 5 4 2 2 4 3 2
split_gain=98186.9 48553.7 40912.6 19089.5 17605 9808.42 9414.51 9134.91 8696.7 8958.26 12756.8 5041.07 4936.82 2590.5 2421.92 1832.72
threshold=-2.4125863698824324 -0.7260955199527992 -1.4541924887384754 -0.94697206246517529 0.13040440949170831 0.91891409428472726 -0.73547556027375849 -0.18109817220935884 -0.19258467670575882 0.56905858631062023 0.35478060728154032 -1.636923656553926 0.23315504287780178 -0.53001490807999285 -1.2398989728045713 -0.19297111623695548
decision_type=2 2 2 2 2 2 2 2 2 2 2 2 2 2 2 2
left_child=-1 2 -2 7 -4 6 -6 12 13 10 -10 -11 -3 -5 -14 -15
right_child=1 3 4 8 5 -7 -8 -9 9 11 -12 -13 14 15 -16 -17
leaf_value=1.6218712095346313 1.3884173521450243 0.59979927997384397 0.87432860442956462 -0.12263796432636723 0.057289047170831109 -0.27316401007763197 0.39873615608102941 -0.18978864270614682 -0.052985109909503753 0.023526746473624155 0.57028135922095124 -0.21094387768341122 -0.020674861055297821 -0.27221742637026652 0.36866880747699798 -0.49242249550788897
leaf_weight=366 300 522 338 461 2149 538 1293 385 5828 1061 347 6744 302 694 338 843
leaf_count=366 300 522 338 461 2149 538 1293 385 5828 1061 347 6744 302 694 338 843
internal_value=0 -0.0272902 0.261141 -0.103305 0.182519 0.123562 0.185633 0.23201 -0.135783 -0.107877 -0.0178744 -0.179071 0.371805 -0.330893 0.185202 -0.393235
internal_weight=0 22143 4618 17525 4318 3980 3442 1547 15978 13980 6175 7805 1162 1998 640 1537
internal_count=22509 22143 4618 17525 4318 3980 3442 1547 15978 13980 6175 7805 1162 1998 640 1537
is_linear=0
shrinkage=0.1


Tree=21
num_leaves=13
num_cat=0
split_feature=3 6 0 4 0 2 8 4 8 2 2 1
split_gain=83155.1 53544.7 24940.6 22126.2 14046.1 10731.2 10623.8 9930.01 7088.78 6053.54 3201.73 2833.31
threshold=-1.5976298253196106 0.15806446614269618 -1.8204034630351702 -1.5685609776643714 0.90276269682082055 -0.6531203001060184 -0.39170208022642866 -1.2347860403324982 0.20641301854204849 -1.1259844542118032 -2.3390764497636756 -1.1942336171522565
decision_type=2 2 2 2 2 2 2 2 2 2 2 2
left_child=1 -1 -2 -4 5 8 -7 -3 -5 10 -6 -11
right_child=2 7 3 4 9 6 -8 -9 -10 11 -12 -13
leaf_value=1.7447391346617236 0.66722866674129189 0.61434923378625317 0.76174670013831935 0.31962943651659553 0.1679243986624335 0.086007818862029975 -0.1166470308161472 -0.08674987076902678 -0.046379237760184711 -0.61703767062010129 -0.15807731032108699 -0.29234304882950835
leaf_weight=400 477 519 319 1330 355 3500 9907 330 878 306 1963 2225
leaf_count=400 477 519 319 1330 355 3500 9907 330 878 306 1963 2225
internal_value=0 0.79231 -0.046947 -0.0633697 -0.0762685 -0.0300952 -0.06374 0.342056 0.174133 -0.224921 -0.1081 -0.331827
internal_weight=0 1249 21260 20783 20464 15615 13407 849 2208 4849 2318 2531
internal_count=22509 1249 21260 20783 20464 15615 13407 849 2208 4849 2318 2531
is_linear=0
shrinkage=0.1


Tree=22
num_leaves=20
num_cat=0
split_feature=5 8 3 0 8 5 8 2 0 0 1 3 4 2 0 2 7 7 3
split_gain=67768.7 33481.2 19684.1 19507.8 13058.4 11293.8 6603.88 6582.03 10677 8102.95 5941.27 5440.43 4791.07 4066.76 3429.76 3424.03 3332.06 3021.56 2756.79
threshold=-2.4125863698824324 -1.3557999702601238 -1.5976298253196106 -1.1420447695510916 -1.5532996351116861 -0.39780492375586751 1.8743959700372379 0.062550881789476917 0.94459414046164991 0.53844393645295174 -1.1151381196018975 -1.0505929114187538 -0.91852698892474627 -2.3390764497636756 -1.475851580316643 0.6584777835435357 -1.5217686601762457 -1.5367839998716393 0.070580746747319706
decision_type=2 2 2 2 2 2 2 2 2 2 2 2 2 2 2 2 2 2 2
left_child=-1 2 4 5 -2 14 -7 8 10 12 -5 17 -9 -10 -3 -13 -17 -4 -11
right_child=1 3 11 7 -6 6 -8 9 13 18 -12 15 -14 -15 -16 16 -18 -19 -20
leaf_value=1.3474624924747431 0.36542567592249187 0.77975044982902764 0.10995120741993443 0.38105665338444239 1.2049084175466258 0.16030742906170029 -0.24153643535023026 0.18566223243448757 0.16276987575286306 -0.5355417966536844 0.0132449928909505 0.073995409373216511 -0.14608750368102694 -0.20326992625165907 0.30760140171793643 0.65252523802180462 0.20688066083895673 -0.29469819958085447 -0.2740847748650902
leaf_weight=366 413 315 410 489 337 1779 530 471 331 602 4234 495 5623 3568 304 322 352 334 1234
leaf_count=366 413 315 410 489 337 1779 530 471 331 602 4234 495 5623 3568 304 322 352 334 1234
internal_value=0 -0.0226333 0.309875 -0.0681022 0.743735 0.169789 0.0680049 -0.110192 -0.0497067 -0.175941 0.0513993 0.139479 -0.120421 -0.172162 0.548741 0.273928 0.420436 -0.0718577 -0.360058
internal_weight=0 22143 2663 19480 750 2928 2309 16552 8622 7930 4723 1913 6094 3899 619 1169 674 744 1836
internal_count=22509 22143 2663 19480 750 2928 2309 16552 8622 7930 4723 1913 6094 3899 619 1169 674 744 1836
is_linear=0
shrinkage=0.1


Tree=23
num_leaves=16
num_cat=0
split_feature=5 0 8 3 0 8 7 6 2 8 0 3 7 3 5
split_gain=54924.2 27647.3 20933.4 11445.3 10689.2 8810.94 6966.08 9542.02 5800.18 5222.01 5048.93 4913.19 4140.38 3737.51 3487.64
threshold=-2.4125863698824324 -1.8204034630351702 -1.3426957270946163 -1.623158651025167 -0.076458011346573415 -1.5757640519668403 1.4881541078938341 0.40239496655982859 0.049800980315840522 0.17926851484207071 1.134829219377538 -1.0089612879604619 -1.5139345699003879 0.19305365160654026 -1.5673044988063423
decision_type=2 2 2 2 2 2 2 2 2 2 2 2 2 2 2
left_child=-1 -2 3 5 6 -3 7 -4 10 -10 -6 12 -5 -8 -13
right_child=1 2 4 11 8 -7 13 -9 9 -11 -12 14 -14 -15 -16
leaf_value=1.213083394844217 0.70305036986030123 0.1844620538538983 0.33807474631984746 0.10099393636302847 -0.0024526136521557844 0.90947232258040467 -0.48063961581088777 0.0063914796712424421 -0.17067363007021799 -0.43540506275205382 -0.17778589385203497 -0.010252749877847399 -0.34606141287746817 -0.097069583146004099 0.35917109968027294
leaf_weight=366 515 309 1032 520 3520 367 300 5409 2961 996 3078 380 343 1634 779
leaf_count=366 515 309 1032 520 3520 367 300 5409 2961 996 3078 380 343 1634 779
internal_value=0 -0.0203568 -0.0376141 0.22293 -0.0747581 0.578832 0.00960218 0.0595792 -0.141689 -0.237401 -0.084261 0.103717 -0.0768834 -0.156786 0.238144
internal_weight=0 22143 21628 2698 18930 676 8375 6441 10555 3957 6598 2022 863 1934 1159
internal_count=22509 22143 21628 2698 18930 676 8375 6441 10555 3957 6598 2022 863 1934 1159
is_linear=0
shrinkage=0.1


Tree=24
num_leaves=19
num_cat=0
split_feature=4 6 0 7 5 0 8 8 3 2 0 3 3 4 3 2 6 3
split_gain=45820.5 28125.8 19659.5 17913.9 7793.25 9243.6 7425.31 6457.66 11654.7 6438.43 7282.46 9645.84 6584.06 3929.75 5586.09 3544.01 5221.49 2771.06
threshold=-1.4848739671380125 -0.25529971380828398 -1.1420447695510916 -0.95640847860186373 -1.978366230631017 -0.53221125191806429 1.8743959700372379 1.0141960079586296 0.38203242035510693 -2.1160405020673294 1.021837016199078 0.028556372124326955 0.32861826195578914 1.7148161664315686 0.80790559994574651 -0.089225342602163901 0.38395492879249754 0.20005771404370509
decision_type=2 2 2 2 2 2 2 2 2 2 2 2 2 2 2 2 2 2
left_child=1 -1 3 -2 -3 -6 15 9 17 -4 11 -11 -12 14 -10 -5 -17 -9
right_child=2 4 7 6 5 -7 -8 8 13 10 12 -13 -14 -15 -16 16 -18 -19
leaf_value=1.3987974255451938 0.91711236657544637 -0.088860536734195986 0.30932089774595467 0.45261480932637488 0.9058247035434116 0.20054970635306338 -0.22199914601128096 -0.06512693208571535 -0.49007114695443565 -0.086674775564443349 -0.36789783436666035 0.11575116016565504 -0.061863728338035585 0.035611356977456612 -0.20076320312242443 0.45107407652577503 0.045215959289359176 0.31688535023118475
leaf_weight=306 308 332 492 427 315 453 530 328 1114 7244 1289 3486 1546 357 1669 404 1460 449
leaf_count=306 308 332 492 427 315 453 530 328 1114 7244 1289 3486 1546 357 1669 404 1460 449
internal_value=0 0.552332 -0.0370519 0.19424 0.315803 0.490624 0.115019 -0.0773248 -0.190858 -0.0456772 -0.0585748 -0.0209053 -0.20109 -0.276649 -0.316704 0.193047 0.133376 0.155748
internal_weight=0 1406 21103 3129 1100 768 2821 17974 3917 14057 13565 10730 2835 3140 2783 2291 1864 777
internal_count=22509 1406 21103 3129 1100 768 2821 17974 3917 14057 13565 10730 2835 3140 2783 2291 1864 777
is_linear=0
shrinkage=0.1


Tree=25
num_leaves=13
num_cat=0
split_feature=3 6 0 4 0 5 8 4 0 2 7 0
split_gain=38780.9 32478.7 13254 11911 7537.51 8621.88 13149.1 6328.42 5149.48 3928.25 5347.42 4262.96
threshold=-1.5976298253196106 -0.12929278906486955 -1.8204034630351702 -1.5685609776643714 0.20129196177751138 -1.9031014064941076 -0.42259065340226498 -1.1975647827437395 -0.72873118424040961 0.049800980315840522 -1.4499561659808851 1.252822273653609
decision_type=2 2 2 2 2 2 2 2 2 2 2 2
left_child=1 -1 -2 -4 5 -5 -7 8 -3 11 -11 -6
right_child=2 7 3 4 9 6 -8 -9 -10 10 -12 -13
leaf_value=1.4404179529139871 0.48862196731003138 0.73758679608700695 0.56141499605262657 -0.51685665219852328 0.00041866448877356358 0.2569712554406493 -0.033357438960919465 -0.091696803471882651 0.15345339955571463 0.0974872547094352 -0.24927885153508558 -0.16672388913471034
leaf_weight=303 477 302 319 306 3704 1918 8337 342 302 519 3086 2594
leaf_count=303 477 302 319 306 3704 1918 8337 342 302 519 3086 2594
internal_value=0 0.541136 -0.032002 -0.043974 -0.053438 0.00533218 0.0209627 0.251883 0.446256 -0.116107 -0.199343 -0.068439
internal_weight=0 1249 21260 20783 20464 10561 10255 946 604 9903 3605 6298
internal_count=22509 1249 21260 20783 20464 10561 10255 946 604 9903 3605 6298
is_linear=0
shrinkage=0.1


Tree=26
num_leaves=12
num_cat=0
split_feature=3 6 0 4 8 1 3 3 3 1 4
split_gain=31434.1 26571.8 10740.3 9654.11 6666.22 11761.6 7153.34 11739.8 6773.49 5547.46 3336.72
threshold=-1.5976298253196106 0.26255801349091146 -1.8204034630351702 -1.5685609776643714 1.0141960079586296 2.1435963794728878 0.38203242035510693 0.10907036088800474 0.66127849845742348 -0.10271575095730616 1.7961920531207165
decision_type=2 2 2 2 2 2 2 2 2 2 2
left_child=1 -1 -2 -4 5 8 7 -6 -5 -3 -8
right_child=2 9 3 4 6 -7 10 -9 -10 -11 -12
leaf_value=1.1009024134793726 0.43986199537173276 0.45088410774496063 0.50544892990961665 -0.055445309549909276 -0.43536591041260042 0.59379575758852965 -0.25857807065633559 0.29767122885955827 0.13775346932503513 -0.082727422809843854 0.016441352148585529
leaf_weight=450 477 334 319 13398 311 308 3107 728 2098 465 514
leaf_count=450 477 334 319 13398 311 308 3107 728 2098 465 514
internal_value=0 0.487202 -0.0287998 -0.0395769 -0.0480972 -0.0171012 -0.153191 0.0780463 -0.029281 0.140619 -0.219545
internal_weight=0 1249 21260 20783 20464 15804 4660 1039 15496 799 3621
internal_count=22509 1249 21260 20783 20464 15804 4660 1039 15496 799 3621
is_linear=0
shrinkage=0.1


Tree=27
num_leaves=17
num_cat=0
split_feature=5 0 7 0 5 3 7 0 2 8 2 1 7 5 8 3
split_gain=26556.9 15606.6 11317.1 9129.56 13931.5 8731.44 8273.48 5723.37 6162.23 5493.04 5454.85 5334.74 4377.4 3683.89 3199.01 1105.8
threshold=-2.4125863698824324 -1.858849195324779 -0.95640847860186373 0.054510224155732201 -1.4630916653860051 -0.82908125452746517 -1.5367839998716393 -0.40759544889110277 -1.1259844542118032 1.7967065284131631 -0.1027786625248233 1.2102695083786552 -1.529602750452103 -1.4399332579592645 1.0141960079586296 0.97770502015142136
decision_type=2 2 2 2 2 2 2 2 2 2 2 2 2 2 2 2
left_child=-1 -2 3 4 6 12 -3 9 14 10 -4 -10 -5 -7 -9 -11
right_child=1 2 7 5 -6 13 -8 8 11 15 -12 -13 -14 -15 -16 -17
leaf_value=0.84357694262379845 0.57965909800565185 0.38661614796518817 0.23948445644194891 0.03075727217998972 0.90932965761264328 -0.11741798533753051 -0.084803673580031977 0.098959288078425883 -0.16005289318457386 -0.093235704169996339 -0.00021200600894441331 0.26063527659105418 -0.39856711111412046 0.28488094718974383 -0.14218718149261286 -0.31468564294946011
leaf_weight=366 433 800 1208 392 304 312 695 1901 8244 417 4422 312 601 836 773 493
leaf_count=366 433 800 1208 392 304 312 695 1901 8244 417 4422 312 601 836 773 493
internal_value=0 -0.0141032 -0.0259717 0.12734 0.293334 -0.0122111 0.167551 -0.0599695 -0.103276 0.0143972 0.0512518 -0.144684 -0.229225 0.175538 0.0292216 -0.213422
internal_weight=0 22143 21710 3940 1799 2141 1495 17770 11230 6540 5630 8556 993 1148 2674 910
internal_count=22509 22143 21710 3940 1799 2141 1495 17770 11230 6540 5630 8556 993 1148 2674 910
is_linear=0
shrinkage=0.1


Tree=28
num_leaves=20
num_cat=0
split_feature=7 6 0 3 3 3 4 5 2 5 0 3 7 4 0 0 4 3 2
split_gain=22010.6 39409.8 14059.6 6898.01 9198.36 6657.11 8780.26 10140.9 7471.25 4930.97 5919.57 6066.3 5842.56 4912.26 4742.77 4315.67 4169.05 15777.3 5178.37
threshold=-0.95640847860186373 -0.77930412036326802 -1.2167128827639384 -1.0089612879604619 -1.3795874703831796 0.060500133519997411 0.084987308811388579 0.11168003963246388 -0.7204327936394338 -2.0652102584812999 0.21264524535046667 -0.77605984729284827 -1.553105021279676 -0.23321795214348773 0.62325566790568321 0.22609348005890786 1.4979354400238674 0.66939535586124099 -0.6531203001060184
decision_type=2 2 2 2 2 2 2 2 2 2 2 2 2 2 2 2 2 2 2
left_child=1 -1 -3 4 -2 8 7 13 15 -4 12 -12 -11 -7 -10 -5 18 -18 -8
right_child=3 2 9 5 -6 6 16 -9 14 10 11 -13 -14 -15 -16 -17 17 -19 -20
leaf_value=1.2732842748410673 -0.19675094895358161 0.76666760414645274 -0.2892033942855437 0.29648654317131723 0.32173254991747491 0.035905130728334025 -0.035020988242892667 0.20251617078496964 -0.1707759632123507 0.51277452745639229 -0.22221225147773249 0.14818617435783227 0.1072134386903154 -0.4039290983151605 -0.4803088879169497 -0.084712641840577946 0.35069729947607242 -0.20324520585748562 -0.24707863579596778
leaf_weight=317 507 307 357 497 1048 552 2301 2754 4298 526 830 944 1092 469 559 735 883 1228 2305
leaf_count=317 507 307 357 497 1048 552 2301 2754 4298 526 830 944 1092 469 559 735 883 1228 2305
internal_value=0 0.201257 0.117178 -0.0486575 0.152666 -0.0675461 -0.0192712 0.102739 -0.150712 0.0638025 0.10103 -0.0251394 0.239294 -0.166332 -0.206492 0.0691823 -0.0878466 0.0285171 -0.141172
internal_weight=0 4373 4056 18136 1555 16581 10492 3775 6089 3749 3392 1774 1618 1021 4857 1232 6717 2111 4606
internal_count=22509 4373 4056 18136 1555 16581 10492 3775 6089 3749 3392 1774 1618 1021 4857 1232 6717 2111 4606
is_linear=0
shrinkage=0.1


Tree=29
num_leaves=18
num_cat=0
split_feature=3 6 0 8 2 0 3 1 1 3 3 2 1 5 7 3 6
split_gain=18848.7 18772.1 6897.13 8921.91 6972.04 9261.72 8628.68 4352.35 4331.17 4819.42 4868 3280.66 2796.07 2625.91 2540.94 4043.04 2922.5
threshold=-1.5976298253196106 -0.12929278906486955 0.34820885753706382 -0.42259065340226498 0.89499718868871336 -1.2830417388761743 -0.55723199002701562 0.22948533875420521 -1.7004448014745612 2.0650366196257708 0.048586681524071272 -2.4225271747513921 -1.447339209313409 -1.4399332579592645 0.92573171017289868 0.12739874857404551 -1.2925518382206176
decision_type=2 2 2 2 2 2 2 2 2 2 2 2 2 2 2 2 2
left_child=1 -1 3 4 5 -2 -6 -3 -5 10 -10 -4 -13 -7 15 -14 -16
right_child=2 7 11 8 6 13 -8 -9 9 -11 -12 12 14 -15 16 -17 -18
leaf_value=1.0609581040561593 0.76559741735502995 0.37524995822099722 0.23098817677824823 0.30806990068269341 -0.2958248482189611 0.051319897866494817 0.30062666552207051 -0.053469215732220465 -0.09035071546989637 -0.34923352817574177 0.061034245378373445 -0.3670284970280584 -0.14888324213372059 0.30449313625609609 0.049155946116173466 0.0041867118093058655 -0.30406096749853373
leaf_weight=303 333 465 308 381 564 760 424 481 4482 464 4036 376 3138 889 309 3832 964
leaf_count=303 333 465 308 381 564 760 424 481 4482 464 4036 376 3138 889 309 3832 964
internal_value=0 0.3773 -0.0222681 0.0261902 0.177175 0.285307 -0.0398126 0.157439 -0.021717 -0.0357387 -0.0186227 -0.0892105 -0.100678 0.187911 -0.0884858 -0.0647392 -0.218352
internal_weight=0 1249 21260 12333 2970 1982 988 946 9363 8982 8518 8927 8619 1649 8243 6970 1273
internal_count=22509 1249 21260 12333 2970 1982 988 946 9363 8982 8518 8927 8619 1649 8243 6970 1273
is_linear=0
shrinkage=0.1


Tree=30
num_leaves=20
num_cat=0
split_feature=4 6 0 3 5 0 2 0 4 3 5 0 8 4 1 8 3 6 3
split_gain=17556.3 13085 7330.73 8627.96 6309.59 7990.24 5116.5 6089.94 4952.76 7214.6 6835.42 5236.12 4678.77 6156.06 4219.04 3534.76 3205.43 3296.41 2936.56
threshold=-1.4848739671380125 -0.25529971380828398 -1.1420447695510916 -1.1070181620807784 -2.0188934436278183 -0.59411367901822543 0.40889409579249486 1.021837016199078 -0.95003125596882665 -0.74830543165398689 -1.399406044962463 0.13695668819743131 0.24291769593167353 0.14531980477225229 0.97298301572757806 1.8959243695234269 0.24038016695299427 -0.0662893266931536 0.3367351193596067
decision_type=2 2 2 2 2 2 2 2 2 2 2 2 2 2 2 2 2 2 2
left_child=1 -1 3 14 -3 -6 7 12 9 11 -11 -8 13 -4 -2 18 -9 -18 -5
right_child=2 4 6 15 5 -7 8 16 -10 10 -12 -13 -14 -15 -16 -17 17 -19 -20
leaf_value=0.9217385462542893 0.61877487996337588 -0.20716650997136915 0.0778536872331618 0.019651995601508297 0.73244504408015843 0.09417823603500465 0.1334037331484702 -0.24213471015084745 -0.15410525115953527 -0.016988331689402596 0.6287505538418191 -0.41789386715677879 -0.060042162485354988 0.51419158892802386 0.13260181594812712 -0.20078126433205981 -0.18294559725663728 0.044532105785133586 0.3033743905919179
leaf_weight=306 440 300 4574 1372 307 541 318 1154 5366 336 319 374 2465 347 301 514 1034 1656 496
leaf_count=306 440 300 4574 1372 307 541 318 1154 5366 336 319 374 2465 347 301 514 1034 1656 496
internal_value=0 0.341756 -0.017404 0.12397 0.186493 0.325839 -0.0420158 -0.000727385 -0.111076 0.0603269 0.29798 -0.164725 0.0523968 0.10872 0.421732 0.0312031 -0.102789 -0.0429428 0.0951093
internal_weight=0 1454 21066 3123 1148 848 17943 11230 6713 1347 655 692 7386 4921 741 2382 3844 2690 1868
internal_count=22520 1454 21066 3123 1148 848 17943 11230 6713 1347 655 692 7386 4921 741 2382 3844 2690 1868
is_linear=0
shrinkage=0.1


Tree=31
num_leaves=20
num_cat=0
split_feature=7 6 0 4 2 2 0 3 2 8 2 0 3 1 0 1 3 6 1
split_gain=15005.1 14987.9 8232.36 13484.8 5658.88 4905.87 4426.05 4977.23 4512.58 3637.92 4185.11 3626.31 3539.23 3492.01 5619.27 3456.54 3292.47 2670.44 2516.82
threshold=-1.5139345699003879 -0.34596323283099656 -1.2167128827639384 -1.0410165522969026 0.40889409579249486 0.7216334598841766 1.252822273653609 0.31172996187365171 -1.5755145420589882 1.8135548410545295 0.31164553222372032 -0.53221125191806429 0.26669449498795267 -0.3874595421385913 0.77030772180300888 -0.32418314409830767 -0.16808104433590673 -0.12929278906486955 -0.59310783576953552
decision_type=2 2 2 2 2 2 2 2 2 2 2 2 2 2 2 2 2 2 2
left_child=1 -1 3 -2 6 11 8 -8 -4 10 -5 -3 -12 14 18 -10 -15 -9 -6
right_child=2 5 4 9 13 -7 7 17 15 -11 12 -13 -14 16 -16 -17 -18 -19 -20
leaf_value=0.90777462283671884 0.75601340921441462 0.32998251178397786 0.28536982565545121 0.33996287512067991 -0.019868766148623263 0.36866004723032347 -0.34336567637582843 -0.18341683865583036 0.10305273379598978 -0.14993911245747391 -0.077976361282039872 -0.070647613819334945 0.31554296258715242 -0.27695058709939291 -0.35893954492340174 -0.037124422726889164 -0.092735500604048351 0.065349542978908784 0.24975202692957488
leaf_weight=302 313 300 649 627 1867 658 708 703 2681 617 902 905 305 1851 442 5111 2041 1114 424
leaf_count=302 313 300 649 627 1867 658 708 703 2681 617 902 905 305 1851 442 5111 2041 1114 424
internal_value=0 0.255457 -0.0213943 0.139011 -0.0466046 0.149284 -0.00251748 -0.118649 0.0322314 0.059942 0.130594 0.0292852 0.021642 -0.119568 -0.0329117 0.0111135 -0.180395 -0.0309465 0.0301177
internal_weight=0 2165 20355 2764 17591 1863 10966 2525 8441 2451 1834 1205 1207 6625 2733 7792 3892 1817 2291
internal_count=22520 2165 20355 2764 17591 1863 10966 2525 8441 2451 1834 1205 1207 6625 2733 7792 3892 1817 2291
is_linear=0
shrinkage=0.1


Tree=32
num_leaves=20
num_cat=0
split_feature=7 6 0 4 5 2 4 3 5 0 2 5 3 1 3 0 6 1 5
split_gain=12160.8 12149.7 6671.9 10930.4 4700.99 4462.31 5119.91 13296.7 4190.52 9198.97 4430.29 3601.62 3139.92 2276.44 3097.75 2139.56 1854.46 1699.45 1684.72
threshold=-1.5139345699003879 -0.34596323283099656 -1.2167128827639384 -1.0410165522969026 -1.4399332579592645 -1.8180770511903004 -0.98019750394925798 -0.76231355652831767 -2.0652102584812999 -0.31257927803648894 0.66874756719627204 -0.13148323834833139 -1.1070181620807784 0.65660102552614208 0.15554591537760712 1.119286033533611 0.53915858000086014 1.922128986331886 -1.6425693229432583
decision_type=2 2 2 2 2 2 2 2 2 2 2 2 2 2 2 2 2 2 2
left_child=1 -1 3 -2 16 15 7 -7 -3 -10 18 -8 -5 14 -14 -6 -4 -15 -11
right_child=2 8 4 12 5 6 11 -9 9 10 -12 -13 13 17 -16 -17 -18 -19 -20
leaf_value=0.8172967475596139 0.68065284593268094 -0.16962256147845153 -0.48492946071966903 0.28185807260751877 0.38179151454970006 -0.13267718674213594 -0.1616195854492046 0.53800490489374508 0.64418968947227695 -0.26062011884127573 0.32338599533123791 -0.037070556341255147 -0.07112262690894125 -0.16771053163702798 0.31606723981009399 0.074622336064830777 -0.14888280593955225 0.10686132849034369 0.049643653916139709
leaf_weight=302 313 364 303 484 314 695 2896 513 365 308 423 11698 409 834 416 812 360 308 403
leaf_count=302 313 364 303 484 314 695 2896 513 365 308 423 11698 409 834 416 812 360 308 403
internal_value=0 0.229983 -0.019252 0.125153 -0.0419476 -0.0317075 -0.045416 0.15235 0.134389 0.208276 0.0675243 -0.0617952 0.0539652 -0.00222479 0.124261 0.160543 -0.30296 -0.0936292 -0.0849376
internal_weight=0 2165 20355 2764 17591 16928 15802 1208 1863 1499 1134 14594 2451 1967 825 1126 663 1142 711
internal_count=22520 2165 20355 2764 17591 16928 15802 1208 1863 1499 1134 14594 2451 1967 825 1126 663 1142 711
is_linear=0
shrinkage=0.1


Tree=33
num_leaves=16
num_cat=0
split_feature=0 7 6 2 0 1 3 7 6 3 7 2 1 3 1
split_gain=11230.2 7209.83 7027.04 3942.26 3540.85 4875.65 14709 7385.87 6028.96 5096.11 3983.42 3752.75 4153.64 2403.96 1288.04
threshold=-1.9112364895257012 -1.5596334298428902 0.022837522515607427 0.82220049095978831 -0.89078579143056913 0.83061112013692651 -0.96209298230615847 0.019588601598714828 0.53762191018691741 -1.327220648423064 -0.056140937734574022 -2.4225271747513921 -2.0010076921659214 0.060500133519997411 -0.48237413919902566
decision_type=2 2 2 2 2 2 2 2 2 2 2 2 2 2 2
left_child=-1 2 -2 14 5 6 8 -8 -3 -7 -11 -6 -13 -14 -4
right_child=1 4 3 -5 11 9 7 -9 -10 10 -12 12 13 -15 -16
leaf_value=0.55987054410926462 0.60211436784791328 0.86913725514727158 0.13824870402581599 0.3927582521907817 0.29083360914733858 -0.4334227725275579 -0.42704397392731197 0.098428342985620948 0.28869662758182074 0.28601327816559879 -0.0717326582134198 0.31593335532095645 -0.098140110171356071 -0.019510697930049583 -0.12023532937901127
leaf_weight=357 346 302 303 308 332 300 338 1267 441 406 1322 306 7168 8498 526
leaf_count=357 346 302 303 308 332 300 338 1267 441 406 1322 306 7168 8498 526
internal_value=0 -0.00471723 0.208194 0.0878962 -0.0199948 0.0598667 0.157936 -0.0124289 0.525474 -0.0536989 0.0124379 -0.041432 -0.0483564 -0.0554917 -0.0257065
internal_weight=0 22163 1483 1137 20680 4376 2348 1605 743 2028 1728 16304 15972 15666 829
internal_count=22520 22163 1483 1137 20680 4376 2348 1605 743 2028 1728 16304 15972 15666 829
is_linear=0
shrinkage=0.1


Tree=34
num_leaves=16
num_cat=0
split_feature=0 5 7 0 2 1 8 3 2 1 7 0 2 8 5
split_gain=9378.93 18011.7 5997.81 3989.66 6333.66 4851.24 11088.1 6338.22 3140.44 2980.27 2975 3332.91 1332.16 887.035 1418.58
threshold=-1.7827551637584238 0.088521632205716475 -1.7287192116301477 0.95817753330786426 -0.6531203001060184 -0.40327864164866672 -1.5532996351116861 -1.5743920480748093 -1.7433242041941879 -1.2100527166623318 1.3735805376094186 -0.32595993367604342 0.25324050410339255 0.99360362584140571 0.56905858631062023
decision_type=2 2 2 2 2 2 2 2 2 2 2 2 2 2 2
left_child=1 -1 -2 4 10 7 -7 -6 13 -10 11 -4 -11 14 -5
right_child=2 -3 3 8 5 6 -8 -9 9 12 -12 -13 -14 -15 -16
leaf_value=0.93778067913004437 0.39048211152687795 -0.13349738501470823 0.43152310565409097 -0.05326903133701643 0.50736208339511868 -0.61190856241484193 -0.036391740480025678 0.03610289095252419 -0.42798829931029658 -0.090590005971068532 -0.080921396039999455 0.13396085259591733 -0.30070176186763953 -0.086573470612953174 0.2268101275981208
leaf_weight=303 372 324 504 306 304 346 9502 4444 333 2770 428 1485 338 321 440
leaf_count=303 372 324 504 306 304 346 9502 4444 333 2770 428 1485 338 321 440
internal_value=0 0.384871 -0.00708589 -0.0139759 0.00818911 -0.0166432 -0.056672 0.0663767 -0.0976088 -0.144076 0.158093 0.20954 -0.113529 0.0522407 0.112008
internal_weight=0 627 21893 21521 17013 14596 9848 4748 4508 3441 2417 1989 3108 1067 746
internal_count=22520 627 21893 21521 17013 14596 9848 4748 4508 3441 2417 1989 3108 1067 746
is_linear=0
shrinkage=0.1


Tree=35
num_leaves=20
num_cat=0
split_feature=7 6 5 0 2 5 0 4 5 3 0 3 3 6 3 5 5 3 0
split_gain=8339.83 16681 8176.27 9435.35 3887.34 4279.45 5503.34 6177.4 5404.19 4774.68 3779.4 3679.78 3322.03 10950.9 4862.8 5708.32 4288.42 7566.27 3797.27
threshold=-0.95640847860186373 -0.81541586099094998 -2.1694230919016433 -1.0664913705358294 0.26571095568171649 0.74274664201118645 -0.36576400525027347 0.038278279680397508 0.16957605819931929 0.15554591537760712 0.054510224155732201 -0.85447916317812111 0.0095079406363348436 0.40239496655982859 0.49200274647134962 0.29694729904639722 -0.66991621102008392 -0.73547556027375849 0.054510224155732201
decision_type=2 2 2 2 2 2 2 2 2 2 2 2 2 2 2 2 2 2 2
left_child=1 -1 -3 -4 5 6 7 -2 -8 -10 -5 -12 13 -6 15 -14 -15 -18 -16
right_child=4 2 3 10 12 -7 8 -9 9 -11 11 -13 14 16 18 -17 17 -19 -20
leaf_value=0.84001995422312481 0.13076761902935383 -0.37561548792878247 0.65373157236157664 0.20218873315542141 0.42817723727462315 -0.063073167049492396 -0.13202092417252492 0.62786410911669654 -0.051601045591537387 0.21492865156660371 -0.16105322524507495 0.10428707770999333 -0.091987959158656596 -0.51225702382729765 -0.00043703375223544784 0.27047534265839052 0.03545050820239988 -0.28739995423786041 -0.25351094552032793
leaf_weight=304 1296 368 301 1341 302 4215 1656 309 1205 1518 931 1189 785 387 1367 971 1205 1824 1046
leaf_count=304 1296 368 301 1341 302 4215 1656 309 1205 1518 931 1189 785 387 1367 971 1205 1824 1046
internal_value=0 0.126351 0.0736292 0.117663 -0.02667 0.0140994 0.0684596 0.226802 0.0103852 0.0970065 0.0708658 -0.0122584 -0.0793856 -0.148096 -0.0180874 0.10848 -0.199153 -0.158994 -0.1102
internal_weight=0 4434 4130 3762 18086 10199 5984 1605 4379 2723 3461 2120 7887 3718 4169 1756 3416 3029 2413
internal_count=22520 4434 4130 3762 18086 10199 5984 1605 4379 2723 3461 2120 7887 3718 4169 1756 3416 3029 2413
is_linear=0
shrinkage=0.1


Tree=36
num_leaves=17
num_cat=0
split_feature=7 6 0 5 5 5 0 2 2 8 0 6 0 1 5 1
split_gain=7265.67 7013.56 3523.36 5956.78 5234.67 3120.76 6186.09 3179.9 3041.48 4266.44 4643.9 4139.08 2847.21 3078.04 1356.2 1099.94
threshold=-1.5139345699003879 -0.34596323283099656 -1.500639582784262 1.0000000180025095e-35 -1.6425693229432583 -2.0652102584812999 -0.31257927803648894 0.66874756719627204 0.84983109935881873 1.0638049285137623 1.021837016199078 -1.2464517438022986 0.67488607653507515 -0.35582134311845853 -1.6425693229432583 0.68823922454628395
decision_type=2 2 2 2 2 2 2 2 2 2 2 2 2 2 2 2
left_child=1 -1 3 -2 -4 -3 -7 14 9 10 -6 -11 13 -10 -8 -5
right_child=2 5 4 15 8 6 7 -9 12 11 -12 -13 -14 -15 -16 -17
leaf_value=0.623474962781291 0.41000760252057922 -0.15772357515467664 -0.39431770939330918 0.1140307148547417 0.073722589727275661 0.525847567474378 -0.23382955069102129 0.26972900237997927 0.042853886531063749 -0.0084581642706417753 -0.070050233936388304 -0.23171689954993174 -0.34849442012755955 -0.14480297710665221 0.04454456872161533 -0.10568754039095207
leaf_weight=302 509 364 379 388 7852 365 308 423 1476 2168 3146 1345 402 2141 403 549
leaf_count=302 509 364 379 388 7852 365 308 423 1476 2168 3146 1345 402 2141 403 549
internal_value=0 0.177245 -0.015404 0.134992 -0.0269116 0.104613 0.168379 0.0529584 -0.019376 0.00194726 0.0325935 -0.0939774 -0.0963473 -0.0682346 -0.0762041 -0.0146804
internal_weight=0 2165 20355 1446 18909 1863 1499 1134 18530 14511 10998 3513 4019 3617 711 937
internal_count=22520 2165 20355 1446 18909 1863 1499 1134 18530 14511 10998 3513 4019 3617 711 937
is_linear=0
shrinkage=0.1


Tree=37
num_leaves=10
num_cat=0
split_feature=0 7 8 7 2 0 5 4 5
split_gain=6684.72 4296.31 3506.27 4596.91 4967.54 5622.29 3239.56 4266.18 2586.29
threshold=-1.9112364895257012 -1.7287192116301477 -1.5869962603944177 -1.4362465079981346 0.70346921668885953 -0.31257927803648894 -1.4630916653860051 -0.98019750394925798 -1.7062549433668004
decision_type=2 2 2 2 2 2 2 2 2
left_child=-1 -2 -3 4 8 -6 -5 -8 -4
right_child=1 2 3 6 5 -7 7 -9 -10
leaf_value=0.43148056787319028 0.33240725813338651 -0.28212135997852295 -0.18106423946887096 -0.29965181947492137 0.64628977765121276 0.1223957085938864 0.18699926740559403 -0.024776580383432042 0.11597527691058235
leaf_weight=357 372 462 459 403 326 550 1004 17780 807
leaf_count=357 372 462 459 403 326 550 1004 17780 807
internal_value=0 -0.00411101 -0.0098708 -0.00396072 0.134949 0.317875 -0.0194745 -0.0134479 0.00822295
internal_weight=0 22163 21791 21329 2142 876 19187 18784 1266
internal_count=22520 22163 21791 21329 2142 876 19187 18784 1266
is_linear=0
shrinkage=0.1


Tree=38
num_leaves=12
num_cat=0
split_feature=4 3 1 6 5 8 6 1 6 7 3
split_gain=5916.96 4329.35 16311.1 16045.9 8969.5 3271.92 7213.34 4452.8 3731.66 4367.2 3171.55
threshold=-1.6189191496962214 -1.623158651025167 0.83061112013692651 0.50381517428014078 -1.978366230631017 1.0638049285137623 -0.62410046915490536 2.1752345784930385 -1.2464517438022986 1.4329890555346709 0.66127849845742348
decision_type=2 2 2 2 2 2 2 2 2 2 2
left_child=-1 2 3 -2 -3 6 -6 -8 9 -7 -10
right_child=1 4 -4 -5 5 8 7 -9 10 -11 -12
leaf_value=0.36069681760978645 1.0061839416682625 -0.53234240887148765 -0.37742612458719516 0.0089055573007281504 0.48882465150502941 0.1813368462299903 -0.0019254200161074675 0.37901866489763969 -0.38305286176637898 -0.089324729835298919 -0.088587486061303983
leaf_weight=451 312 328 323 333 314 812 15588 312 619 2234 894
leaf_count=451 312 328 323 333 314 812 15588 312 619 2234 894
internal_value=0 -0.00479891 0.201882 0.492121 -0.0142894 -0.0060843 0.0149613 0.00557308 -0.0809194 -0.0171362 -0.209233
internal_weight=0 22069 968 645 21101 20773 16214 15900 4559 3046 1513
internal_count=22520 22069 968 645 21101 20773 16214 15900 4559 3046 1513
is_linear=0
shrinkage=0.1


Tree=39
num_leaves=9
num_cat=0
split_feature=0 5 3 3 4 5 0 2
split_gain=5570.68 14961.9 4262.6 6418.78 3979.08 7192.7 2653.88 608.892
threshold=-1.6550577551902315 -0.49043855346283743 -1.8212361550893041 -1.6821367842577473 -1.6016465399654904 -1.978366230631017 0.97088239825855249 0.36991083539639175
decision_type=2 2 2 2 2 2 2 2
left_child=1 -1 -2 -4 -5 -6 -7 -3
right_child=2 7 3 4 5 6 -8 -9
leaf_value=0.81539662081605213 -0.36663875918470845 0.077081065266937421 0.34660363589789261 0.34179258741153656 -0.48954121793388189 0.0099028190616548776 -0.077760609295112054 -0.11302836674956546
leaf_weight=305 326 307 512 313 316 15639 4431 371
leaf_count=305 326 307 512 313 316 15639 4431 371
internal_value=0 0.234965 -0.00834339 -0.00281958 -0.0114791 -0.0169196 -0.00945418 -0.0269596
internal_weight=0 983 21537 21211 20699 20386 20070 678
internal_count=22520 983 21537 21211 20699 20386 20070 678
is_linear=0
shrinkage=0.1


Tree=40
num_leaves=14
num_cat=0
split_feature=0 0 7 8 5 4 3 3 3 1 6 3 3
split_gain=4578.06 3303.67 4769.14 4180.78 8459.81 6333.88 7068.46 4058.58 3772.5 3439.49 2806.62 5179.12 2945.06
threshold=-1.9112364895257012 0.489719427785685 -1.6791033065497165 -1.5532996351116861 -1.978366230631017 -0.98019750394925798 -1.5262800303989532 -0.060467225207869249 1.7902417213900639 -1.447339209313409 -0.40896669520270373 0.92867658309126289 0.070580746747319706
decision_type=2 2 2 2 2 2 2 2 2 2 2 2 2
left_child=-1 2 -2 4 -4 6 -5 -7 9 -3 11 -11 -12
right_child=1 8 3 5 -6 7 -8 -9 -10 10 12 -13 -14
leaf_value=0.35680864767988307 0.37984607643712831 -0.39537073921782373 -0.61841607779926189 0.5032341883602468 0.09164255760510763 -0.06231876894630043 0.081366985932991132 0.058587841669366029 0.27123063225188909 -0.41535639104334426 -0.12045688792992111 0.070644311336369045 0.020410117901556852
leaf_weight=357 368 311 303 527 374 5593 1605 5511 337 545 2378 366 3945
leaf_count=357 368 311 303 527 374 5593 1605 5511 337 545 2378 366 3945
internal_value=0 -0.00366936 0.0250132 0.0156012 -0.226597 0.0280054 0.185834 -0.00231202 -0.0556345 -0.070268 -0.0562387 -0.220239 -0.0325788
internal_weight=0 22163 14281 13913 677 13236 2132 11104 7882 7545 7234 911 6323
internal_count=22520 22163 14281 13913 677 13236 2132 11104 7882 7545 7234 911 6323
is_linear=0
shrinkage=0.1


Tree=41
num_leaves=19
num_cat=0
split_feature=7 8 0 8 4 4 3 3 5 2 3 6 3 8 0 1 5 2
split_gain=4125.36 5925.43 3793.03 5484.12 4226.78 3641.13 9137.71 8716.31 5702.75 4036.35 3092.33 6812.43 3618.9 2909.43 4265.44 1889.89 1710.04 1599.17
threshold=-1.5367839998716393 -1.501818679818625 0.043156940582776956 -1.5532996351116861 -1.5549375108344992 -1.0771430670154034 -1.3507202597776657 -0.85447916317812111 -1.4399332579592645 0.31164553222372032 0.0095079406363348436 0.41007831562954261 0.49200274647134962 0.95803496582074488 -0.38272635154081985 -0.49819323870910109 -1.5904629062330897 0.55406831640737597
decision_type=2 2 2 2 2 2 2 2 2 2 2 2 2 2 2 2 2 2
left_child=2 -2 3 4 -1 6 -3 17 -9 13 11 -11 -12 14 -7 -15 -4 -8
right_child=1 5 16 -5 -6 9 7 8 -10 10 12 -13 -14 15 -16 -17 -18 -19
leaf_value=0.31458575186580601 -0.43536521669155293 0.61661809498579345 -0.18630836326164554 0.57020907647376962 -0.16605828057111402 0.19577693500437382 -0.10032849528228822 -0.11318669658667846 0.39232543325251951 0.31521819445878174 0.098565455117895717 -0.18066360729275668 -0.093337977892718818 0.071507096850515414 0.014929889860737927 -0.099454014177484548 0.11232857955369216 -0.41005134837129698
leaf_weight=413 323 316 360 378 327 1702 351 339 650 301 1690 3363 2345 872 5570 2494 408 318
leaf_count=413 323 316 360 378 327 1702 351 339 650 301 1690 3363 2345 872 5570 2494 408 318
internal_value=0 -0.0110867 0.143384 0.260841 0.102256 -0.00431845 0.124692 0.0306199 0.219111 -0.0182126 -0.0733576 -0.139852 -0.0129576 0.0217004 0.057278 -0.0551565 -0.0277177 -0.247943
internal_weight=0 20634 1886 1118 740 20311 1974 1658 989 18337 7699 3664 4035 10638 7272 3366 768 669
internal_count=22520 20634 1886 1118 740 20311 1974 1658 989 18337 7699 3664 4035 10638 7272 3366 768 669
is_linear=0
shrinkage=0.1


Tree=42
num_leaves=10
num_cat=0
split_feature=0 5 3 3 2 0 3 2 2
split_gain=3694.97 11319 4481.72 4273.19 2694.9 3206.51 4505.26 4091.37 401.081
threshold=-1.6550577551902315 -0.49043855346283743 -1.8212361550893041 -1.6821367842577473 -2.4225271747513921 1.252822273653609 0.32861826195578914 -0.6531203001060184 0.36991083539639175
decision_type=2 2 2 2 2 2 2 2 2
left_child=1 -1 -2 -4 -5 7 -7 -6 -3
right_child=2 8 3 4 5 6 -8 -9 -10
leaf_value=0.69602462941281551 -0.37437286480851134 0.04784470215536557 0.28378330777330257 0.26206531897935731 0.10415716448563901 -0.3162200883825152 -0.026188778006701264 -0.02079839541117777 -0.1064661371621794
leaf_weight=305 326 307 512 361 3187 794 1642 14715 371
leaf_count=305 326 307 512 361 3187 794 1642 14715 371
internal_value=0 0.191173 -0.0069835 -0.00131957 -0.0083851 -0.0131983 -0.120814 0.00145137 -0.0366263
internal_weight=0 983 21537 21211 20699 20338 2436 17902 678
internal_count=22520 983 21537 21211 20699 20338 2436 17902 678
is_linear=0
shrinkage=0.1


Tree=43
num_leaves=14
num_cat=0
split_feature=7 8 0 2 8 4 2 0 1 2 6 3 4
split_gain=3304.67 4948.44 3146.57 3954.55 3792.32 3084.04 2787.71 2915.6 4084.45 2144.82 1994.97 2089.06 1574.36
threshold=-1.5367839998716393 -1.501818679818625 -0.27108572974009271 0.6584777835435357 -1.5757640519668403 -1.446436328582301 -1.5755145420589882 0.489719427785685 -0.32418314409830767 0.39034560899112325 0.56374529702396237 0.8237465635886817 -1.4763593003693425
decision_type=2 2 2 2 2 2 2 2 2 2 2 2 2
left_child=2 -2 4 12 -1 -3 10 8 -8 -9 11 -7 -4
right_child=1 5 3 -5 -6 6 7 9 -10 -11 -12 -13 -14
leaf_value=0.10188395133455518 -0.39780074463651321 0.30607555545041265 -0.29747997640786811 0.27505857307802545 0.53966628032410802 -0.017013360785162288 0.096746380407982932 -0.043543678109982858 -0.029796289222025475 -0.18284577885617082 0.30315369836126388 0.27983611400621949 0.0075286042886396889
leaf_weight=505 323 315 306 373 325 1018 3627 4583 8589 1456 415 308 377
leaf_count=505 323 315 306 373 325 1018 3627 4583 8589 1456 415 308 377
internal_value=0 -0.0100745 0.12818 0.0136153 0.273748 -0.00388934 -0.00878732 -0.0203202 0.00777979 -0.0771541 0.112081 0.052097 -0.129358
internal_weight=0 20634 1886 1056 830 20311 19996 18255 12216 6039 1741 1326 683
internal_count=22520 20634 1886 1056 830 20311 19996 18255 12216 6039 1741 1326 683
is_linear=0
shrinkage=0.1


Tree=44
num_leaves=13
num_cat=0
split_feature=4 8 6 7 5 8 3 3 3 4 7 4
split_gain=3203.18 2718.64 4084 15909.7 10771 4982.8 4457.17 2476.12 4054.18 2320.86 2106.85 311.304
threshold=-1.6444631500022318 1.8959243695234269 -1.3893620364991013 1.2697788414543065 -2.1694230919016433 1.1218380053895765 0.97770502015142136 0.62658547890884631 0.20005771404370509 1.3884611529981072 1.7561452794137926 1.9008008162786652
decision_type=2 2 2 2 2 2 2 2 2 2 2 2
left_child=-1 2 3 -2 -4 6 -6 8 -5 -7 -9 -3
right_child=1 11 4 7 5 9 -8 10 -10 -11 -12 -13
leaf_value=0.29642745890327887 0.71607171800763658 -0.13176154517126198 -0.58772986425086859 -0.13909534981720292 -0.0028593998475625057 -0.26207375183894327 0.18596664329202042 -0.18560183888808324 0.31580054799965973 0.03424513957121459 0.10863449422515011 -0.26987914106756711
leaf_weight=361 383 320 319 317 16143 1023 1354 730 510 356 364 340
leaf_count=361 383 320 319 317 16143 1023 1354 730 510 356 364 340
internal_value=0 -0.00345773 0.00268377 0.128456 -0.0124187 -0.00266543 0.0117626 0.0109877 0.141476 -0.185607 -0.0876926 -0.203214
internal_weight=0 22159 21499 2304 19195 18876 17497 1921 827 1379 1094 660
internal_count=22520 22159 21499 2304 19195 18876 17497 1921 827 1379 1094 660
is_linear=0
shrinkage=0.1


Tree=45
num_leaves=15
num_cat=0
split_feature=7 6 5 4 0 3 3 3 3 5 2 3 5 4
split_gain=4107.22 6177.95 4047.33 5179.38 7735.31 7008.06 3850.29 5959.54 4192.99 3842 3317.92 2129.92 1686.33 953.762
threshold=-1.5139345699003879 -0.34596323283099656 -1.4399332579592645 -0.98019750394925798 0.054510224155732201 -0.82908125452746517 -1.435096301660902 -1.0367811621267731 0.048586681524071272 -2.0652102584812999 0.7216334598841766 -1.3057502514194166 0.16378645634263242 -1.3712639848246124
decision_type=2 2 2 2 2 2 2 2 2 2 2 2 2 2
left_child=1 -1 11 4 -4 -6 -5 12 -9 -3 13 -2 -8 -11
right_child=2 9 3 6 5 -7 7 8 -10 10 -12 -13 -14 -15
leaf_value=0.5466953540711027 -0.024774018254020584 -0.24032302907630371 0.53999235409466051 -0.35152011562516727 -0.23520798259952747 0.30064983529607325 0.30780265543875951 -0.094620443967561543 0.0094690632273477932 -0.066018585715751768 0.31334179461442146 -0.33578989609479148 0.025967188114209068 0.14519012921392474
leaf_weight=303 353 345 416 344 501 474 699 6085 10628 590 593 585 305 334
leaf_count=303 353 345 416 344 501 474 699 6085 10628 590 593 585 305 334
internal_value=0 0.128712 -0.0161204 -0.00633161 0.179534 0.0253425 -0.0206555 -0.0142118 -0.0284321 0.0604374 0.12895 -0.218896 0.222296 0.0104018
internal_weight=0 2165 20390 19452 1391 975 18061 17717 16713 1862 1517 938 1004 924
internal_count=22555 2165 20390 19452 1391 975 18061 17717 16713 1862 1517 938 1004 924
is_linear=0
shrinkage=0.1


Tree=46
num_leaves=17
num_cat=0
split_feature=8 6 5 3 6 2 2 3 3 1 4 3 3 6 1 2
split_gain=3573.72 32033 9248.05 4130.38 4057.16 5865.79 3893.5 3667.59 7566.11 2781.53 2511.96 6400.03 5849.13 7511.17 2338.91 2097.74
threshold=0.83916075996222139 -0.93758111119951626 -2.1115270733347882 0.97770502015142136 0.42851835339687366 0.87578500838597417 0.99664708810866109 0.048586681524071272 0.2881648919916 -0.023620253406947182 1.569215364687307 0.97770502015142136 0.77825288701083095 -0.4443101009234231 0.92552571719736088 0.81294371317755942
decision_type=2 2 2 2 2 2 2 2 2 2 2 2 2 2 2 2
left_child=1 -1 -3 4 5 -4 -6 -2 -9 -5 12 -12 13 -10 -13 -14
right_child=7 2 3 9 6 -7 -8 8 10 -11 11 14 15 -15 -16 -17
leaf_value=1.0411890303271989 -0.41021437552377682 -0.43335593071479334 0.038119450550940306 0.093070292187653739 0.013461180987203454 0.54648734460593473 -0.12091917986370931 0.29283864933416143 -0.49119615097839875 0.46913596219141279 0.26620348680928047 -0.012938166729687279 0.028659021118550565 -0.013708051227202471 -0.34700734491593949 -0.25062876676394413
leaf_weight=301 303 473 764 546 11782 322 2638 563 823 307 591 469 1415 549 378 331
leaf_count=301 303 473 764 546 11782 322 2638 563 823 307 591 469 1415 549 378 331
internal_value=0 0.0204048 0.00208975 0.0147058 0.00291379 0.189215 -0.0111291 -0.0727385 -0.0526867 0.22881 -0.0954393 0.0138956 -0.145852 -0.30028 -0.16226 -0.0244004
internal_weight=0 17133 16832 16359 15506 1086 14420 5422 5119 853 4556 1438 3118 1372 847 1746
internal_count=22555 17133 16832 16359 15506 1086 14420 5422 5119 853 4556 1438 3118 1372 847 1746
is_linear=0
shrinkage=0.1


Tree=47
num_leaves=19
num_cat=0
split_feature=7 6 5 5 0 7 6 5 3 5 2 3 3 8 1 2 5 1
split_gain=3317.9 6959.97 4715.01 4313.62 3211.87 2436.81 4774.5 19612.3 5104.53 4818.84 3514.07 2874.5 7044.25 2815.71 2742.71 1682.91 1514.75 964.162
threshold=-1.4858624130785658 -0.40896669520270373 -2.0652102584812999 -1.6715173322266861 -0.52112828462065564 0.92573171017289868 0.39471161749010586 0.036415215495547916 0.070580746747319706 0.18115526191268641 -0.63733138102085818 0.048586681524071272 0.31172996187365171 1.5814225335512704 -1.0202235225414631 0.73801620999687634 -1.5036188783828066 -1.0044044230313967
decision_type=2 2 2 2 2 2 2 2 2 2 2 2 2 2 2 2 2 2
left_child=1 -1 -3 -2 -4 6 7 -5 10 -10 -8 -7 13 -13 -14 16 -6 -9
right_child=3 2 4 5 15 11 8 17 9 -11 -12 12 14 -15 -16 -17 -18 -19
leaf_value=0.55351038322774915 -0.36213592201317873 -0.27984391098008604 0.40517799111993374 0.80342741981148724 -0.13533445265170913 -0.3658439402205822 0.072921769794621741 -0.16236160905379171 -0.086629766168904276 0.12910225101580258 -0.089836243297547358 0.47334381870657599 0.14534010572547021 0.054151724702155103 -0.13536776551399157 0.19400072534964688 0.12351833730984939 0.035259338421940511
leaf_weight=306 351 370 308 377 555 311 1653 331 1435 3712 6703 305 389 337 3249 521 380 962
leaf_count=306 351 370 308 377 555 311 1653 331 1435 3712 6703 305 389 337 3249 521 380 962
internal_value=0 0.108312 0.0442439 -0.0151461 0.112342 -0.00896567 0.0103501 0.169806 -0.00938191 0.0689503 -0.0576343 -0.0727917 -0.051417 0.253727 -0.105321 0.0501599 -0.0301127 -0.0154168
internal_weight=0 2440 2134 20115 1764 19764 15173 1670 13503 5147 8356 4591 4280 642 3638 1456 935 1293
internal_count=22555 2440 2134 20115 1764 19764 15173 1670 13503 5147 8356 4591 4280 642 3638 1456 935 1293
is_linear=0
shrinkage=0.1


Tree=48
num_leaves=8
num_cat=0
split_feature=0 3 3 5 0 4 3
split_gain=3228 3459.58 3627.35 2620.92 2443.56 3297.11 3278.7
threshold=-1.9112364895257012 -1.8212361550893041 -1.6975849967359813 -2.0188934436278183 0.39328409648445167 -1.0410165522969026 1.7902417213900639
decision_type=2 2 2 2 2 2 2
left_child=-1 -2 -3 -4 5 -5 -6
right_child=1 2 3 4 6 -7 -8
leaf_value=0.29928863513418752 -0.32195119682634088 0.28446102729302714 -0.22725931159785073 0.15566739007024272 -0.05518833146786474 0.0061309350741388935 0.25433365373979178
leaf_weight=350 341 434 527 1713 8282 10552 356
leaf_count=350 341 434 527 1713 8282 10552 356
internal_value=0 -0.00635746 -0.00142083 -0.00722351 -0.00166543 0.027027 -0.042404
internal_weight=0 22205 21864 21430 20903 12265 8638
internal_count=22555 22205 21864 21430 20903 12265 8638
is_linear=0
shrinkage=0.1


Tree=49
num_leaves=13
num_cat=0
split_feature=4 7 6 5 3 0 1 3 3 4 3 3
split_gain=3040.96 2099.85 10009.4 5728.75 2877.48 3055.44 2682.31 2472.97 5385.86 2713.93 5324.81 4261.22
threshold=-1.6444631500022318 0.89896523506371817 -0.89455435640908287 -2.0652102584812999 1.0014010070883737 -1.2830417388761743 -0.023620253406947182 0.048586681524071272 0.2881648919916 1.569215364687307 0.70611758976077199 0.52872498037088056
decision_type=2 2 2 2 2 2 2 2 2 2 2 2
left_child=-1 2 -2 -4 5 -5 -6 -3 -9 11 -11 -10
right_child=1 7 3 4 6 -7 -8 8 9 10 -12 -13
leaf_value=0.28809962257330701 0.57496747051111674 -0.33579597177368314 -0.40297887278613076 0.12983023497862176 0.066383668739446108 -0.017418437846189929 0.41547935736764763 0.24529633162033965 -0.44070325851908304 0.33261885361806798 -0.097372558089366443 -0.091251123665216399
leaf_weight=356 307 314 345 1564 773 14154 307 555 421 397 1041 2021
leaf_count=356 307 314 345 1564 773 14154 307 555 421 397 1041 2021
internal_value=0 -0.00609564 0.00994982 -0.000201572 0.00809423 -0.00275931 0.16591 -0.0650437 -0.0458029 -0.0874946 0.0214872 -0.151652
internal_weight=0 22199 17450 17143 16798 15718 1080 4749 4435 3880 1438 2442
internal_count=22555 22199 17450 17143 16798 15718 1080 4749 4435 3880 1438 2442
is_linear=0
shrinkage=0.1


Tree=50
num_leaves=13
num_cat=0
split_feature=7 8 0 7 5 2 7 0 3 0 1 1
split_gain=2789.13 3508.75 3241.31 2639.39 3996.96 2452.25 3027.19 2552.3 2386.05 2405.08 2331.83 1730.9
threshold=-1.566814679262426 -1.5270911487806735 0.39328409648445167 -1.4225368500153845 -1.4167748505325235 -1.1438692475118077 -0.91462666379729052 1.1642936934121122 -1.3507202597776657 -0.52112828462065564 0.27694263728441343 -0.3400022436083831
decision_type=2 2 2 2 2 2 2 2 2 2 2 2
left_child=2 -2 8 10 -5 7 -7 -6 9 -1 11 -3
right_child=1 3 -4 4 5 6 -8 -9 -10 -11 -12 -13
leaf_value=0.28299784098310232 -0.3010459939425203 0.17845898154096251 -0.14431589290570199 -0.31263762962787528 0.17922901246827744 0.15735982033627841 -0.033355957817344864 -0.0052696673185345672 0.4574830595686688 -0.07494178166102973 0.33527882892099509 -0.089860192905789255
leaf_weight=425 406 487 316 437 1327 880 15052 1722 302 335 393 473
leaf_count=425 406 487 316 437 1327 880 15052 1722 302 335 393 473
internal_value=0 -0.0102655 0.136509 -0.00456759 -0.0139797 -0.0070876 -0.0228126 0.0750611 0.220126 0.125331 0.130424 0.0462999
internal_weight=0 21177 1378 20771 19418 18981 15932 3049 1062 760 1353 960
internal_count=22555 21177 1378 20771 19418 18981 15932 3049 1062 760 1353 960
is_linear=0
shrinkage=0.1


Tree=51
num_leaves=8
num_cat=0
split_feature=3 4 3 5 8 6 3
split_gain=2454.31 4272.9 3071.63 6879.78 1989.45 8044.4 1998.86
threshold=-1.8212361550893041 -1.6444631500022318 -1.6473783061817207 -2.0188934436278183 0.83916075996222139 -0.098559392785978625 0.048586681524071272
decision_type=2 2 2 2 2 2 2
left_child=-1 -2 -3 -4 5 -5 -6
right_child=1 2 3 4 6 -7 -8
leaf_value=-0.26127630970349502 0.3692937874158097 0.22323439670790013 -0.46011165307430801 0.46297873655484212 -0.30259714672758586 0.0052868752350295443 -0.03865386802414833
leaf_weight=356 313 587 331 393 303 15153 5119
leaf_count=356 313 587 331 393 303 15153 5119
internal_value=0 0.00302237 -0.00223245 -0.0084565 -0.00130509 0.0168863 -0.053457
internal_weight=0 22199 21886 21299 20968 15546 5422
internal_count=22555 22199 21886 21299 20968 15546 5422
is_linear=0
shrinkage=0.1


Tree=52
num_leaves=10
num_cat=0
split_feature=0 3 7 5 0 2 2 8 3
split_gain=2494.75 2506.51 2558.1 5236.21 2837.72 2264.34 2056.55 2473.7 2370.59
threshold=-1.9112364895257012 -1.8212361550893041 -1.5596334298428902 -1.9031014064941076 -0.49477244775486667 0.59958371810641109 0.81294371317755942 0.24291769593167353 -1.1794152934406379
decision_type=2 2 2 2 2 2 2 2 2
left_child=-1 -2 4 -4 -3 -6 7 -5 -8
right_child=1 2 3 6 5 -7 8 -9 -10
leaf_value=0.26347306551056204 -0.27385385227199016 0.35884067886461851 -0.41547747377020577 0.044354850606123465 -0.075951726260226254 0.26053955114610566 0.16442255771388312 -0.039646132839840198 -0.081131606468429374
leaf_weight=350 341 394 312 9932 595 300 430 5417 4484
leaf_count=350 341 394 312 9932 595 300 430 5417 4484
internal_value=0 -0.00522563 -0.00102366 -0.00958785 0.135579 0.0370035 -0.00331796 0.0147084 -0.0596153
internal_weight=0 22205 21864 20575 1289 895 20263 15349 4914
internal_count=22555 22205 21864 20575 1289 895 20263 15349 4914
is_linear=0
shrinkage=0.1


Tree=53
num_leaves=16
num_cat=0
split_feature=6 7 5 8 7 0 3 7 3 3 3 3 3 2 1
split_gain=2239.13 24456.1 7339.67 3135.75 2553.69 2349.78 3696.34 3425.46 2106.3 1882.14 2743.48 1401.64 1216.51 1187.96 654.239
threshold=-1.3893620364991013 1.2129816869543395 -2.314163138318782 1.1471104743516249 1.4597555306438503 -1.298443008675439 -1.7593123881214672 -0.67046418353306525 0.95368174057721855 0.19305365160654026 0.67855954970426147 0.66127849845742348 2.1741559848851613 0.12329630278304728 -0.22926854703787333
decision_type=2 2 2 2 2 2 2 2 2 2 2 2 2 2 2
left_child=1 -1 -2 5 -3 7 -7 -4 -8 -6 -11 -5 -12 -9 -13
right_child=2 4 3 11 9 6 8 13 -10 10 12 14 -14 -15 -16
leaf_value=0.93289365540967872 -0.48086084920277988 0.17015197898166021 0.40677030195115194 -0.28542643577668642 -0.29271704141612326 -0.33975321220311172 -0.010926110091009999 0.21892044174102132 0.11638889298839612 0.15478610758760336 -0.051406223833070558 0.033246493178520756 -0.27634425129551193 -0.0046600151641601785 -0.1653442464594965
leaf_weight=301 329 576 329 521 314 325 14642 308 1425 564 903 331 327 1029 331
leaf_count=301 329 576 329 521 314 325 14642 308 1425 564 903 331 327 1029 331
internal_value=0 0.0797213 -0.0132457 -0.00522546 -0.0162705 0.00511107 -0.00639175 0.118225 0.000372139 -0.0672659 -0.0276646 -0.162879 -0.111383 0.0469706 -0.0661485
internal_weight=0 2985 19570 19241 2684 18058 16392 1666 16067 2108 1794 1183 1230 1337 662
internal_count=22555 2985 19570 19241 2684 18058 16392 1666 16067 2108 1794 1183 1230 1337 662
is_linear=0
shrinkage=0.1


Tree=54
num_leaves=17
num_cat=0
split_feature=7 5 4 3 2 3 3 0 5 6 3 3 0 6 4 6
split_gain=2278.95 3403.34 3270.98 6286.82 3705.14 3678.89 4930.89 3607.98 3323.27 2812.87 1991.06 1580.33 1924.27 1271.37 1548.71 909.856
threshold=-1.5139345699003879 -1.4399332579592645 -0.98019750394925798 -0.77605984729284827 0.50757484007474685 -1.3795874703831796 -1.0367811621267731 0.21264524535046667 -0.16622084948844593 -0.34596323283099656 -1.3057502514194166 -1.716044301476922 0.79308186801780622 0.55913528758213404 -1.543503529745142 0.54530525925663131
decision_type=2 2 2 2 2 2 2 2 2 2 2 2 2 2 2 2
left_child=9 10 3 7 -5 -4 15 -3 -8 -1 -2 -11 13 14 -13 -7
right_child=1 2 5 4 -6 6 8 -9 -10 11 -12 12 -14 -15 -16 -17
leaf_value=0.37872527892897395 -0.0095045216665682157 0.22360180513004974 -0.30575498286866964 0.13753145264079239 0.63225783772182231 0.086731068996493438 -0.12463309322818786 -0.21437007236263145 -0.000261048501146357 -0.14686927552762871 -0.31016686539588428 0.39808740818275595 -0.13091874968297049 0.021373952408477725 0.10709716150384774 0.29264621356687653
leaf_weight=303 353 310 420 301 305 339 2531 475 14182 332 585 317 305 475 433 589
leaf_count=303 353 310 420 301 305 339 2531 475 14182 332 585 317 305 475 433 589
internal_value=0 -0.0112041 -0.00222799 0.145478 0.387159 -0.0136113 -0.00663891 -0.0413486 -0.0191022 0.0966804 -0.197148 0.0506051 0.0935237 0.149467 0.230455 0.217599
internal_weight=0 20390 19452 1391 606 18061 17641 785 16713 2165 938 1862 1530 1225 750 928
internal_count=22555 20390 19452 1391 606 18061 17641 785 16713 2165 938 1862 1530 1225 750 928
is_linear=0
shrinkage=0.1


Tree=55
num_leaves=17
num_cat=0
split_feature=0 6 7 1 8 5 0 3 3 1 1 2 2 6 1 6
split_gain=2103.54 3001.96 2911.48 3037.85 4886.21 5985.56 3141.17 3620.53 2463.35 2223.13 1846.95 1943.88 1685.63 1492.23 1430.49 641.877
threshold=0.42862794951216393 0.60062537255862458 -1.6791033065497165 -0.32418314409830767 -1.5532996351116861 -1.978366230631017 -1.2668633097847131 -0.36903872360785001 1.7902417213900639 -1.447339209313409 -0.21344944752780695 1.1218057099717791 -0.039168880104298816 0.51918187241958635 -0.5298314377292429 0.56528196683790533
decision_type=2 2 2 2 2 2 2 2 2 2 2 2 2 2 2 2
left_child=1 2 -1 6 -5 -6 -4 -8 9 -2 11 14 13 -12 -11 -14
right_child=8 -3 3 4 5 -7 7 -9 -10 10 12 -13 15 -15 -16 -17
leaf_value=0.3176427372399418 -0.29487431304140826 -0.20474380308785603 -0.16213872550392008 -0.40021189360161791 0.43288391635009332 -0.0088431902656238535 0.23678192536471845 0.033763326539178719 0.2193811150668854 -0.026141716189856636 -0.15037204967899842 -0.2357656754176147 -0.27961897099976402 0.011899948333697402 0.0948231847880696 -0.10087940519010381
leaf_weight=347 358 556 414 304 317 8677 1650 1878 349 2582 950 320 565 1402 1572 314
leaf_count=347 358 556 414 304 317 8677 1650 1878 349 2582 950 320 565 1402 1572 314
internal_value=0 0.0227962 0.0321218 0.0246154 -0.00657584 0.00677219 0.0981691 0.128753 -0.0403511 -0.0516192 -0.04028 0.00133006 -0.0978804 -0.0536796 0.0196469 -0.215956
internal_weight=0 14143 13587 13240 9298 8994 3942 3528 8412 8063 7705 4474 3231 2352 4154 879
internal_count=22555 14143 13587 13240 9298 8994 3942 3528 8412 8063 7705 4474 3231 2352 4154 879
is_linear=0
shrinkage=0.1


Tree=56
num_leaves=11
num_cat=0
split_feature=1 0 1 6 7 5 8 3 6 5
split_gain=1998.33 2229.55 2517.38 2247.55 7010.22 6294.16 2365.43 1557.05 1064.57 1038.08
threshold=2.1752345784930385 -1.9112364895257012 1.5108323990700248 -1.3893620364991013 1.2697788414543065 -2.2331087123251794 1.1471104743516249 -0.77605984729284827 -2.1976503586337564 0.85274907728821037
decision_type=2 2 2 2 2 2 2 2 2 2
left_child=1 -1 3 4 -3 -5 -7 -4 -6 -9
right_child=-2 2 7 5 8 6 -8 9 -10 -11
leaf_value=0.26264414723256446 0.18706827301491613 0.5135865030311314 -0.344905529084305 -0.4459553139102222 -0.048841034607865125 0.0043064008540097676 -0.14352425544240166 0.029753206809177812 0.09689178134262813 -0.20218969947496951
leaf_weight=305 552 335 314 329 1059 16783 1156 404 950 368
leaf_count=305 552 335 314 329 1059 16783 1156 404 950 368
internal_value=0 -0.00540086 -0.00918059 -0.00135868 0.090805 -0.0131887 -0.00522737 -0.157501 0.0200859 -0.0809288
internal_weight=0 22003 21698 20612 2344 18268 17939 1086 2009 772
internal_count=22555 22003 21698 20612 2344 18268 17939 1086 2009 772
is_linear=0
shrinkage=0.1


Tree=57
num_leaves=20
num_cat=0
split_feature=0 2 7 3 8 7 0 5 8 6 4 7 3 5 2 6 1 4 3
split_gain=1936.04 3237.78 3223.89 2707.35 2440.23 3273.86 3249.24 3007.25 2009.26 3731.5 2769.01 2023.07 1995.39 2226.53 1579.56 1702.85 1461.73 1906.83 1119.11
threshold=1.119286033533611 -0.039168880104298816 -1.566814679262426 -1.1794152934406379 -1.501818679818625 -1.4225368500153845 0.09019197252787732 -1.4167748505325235 1.2238638986067345 -0.4443101009234231 -1.3921857374562021 -1.00406586111333 0.31172996187365171 0.60379619745073487 -0.62143766822495572 -0.4443101009234231 -0.10271575095730616 1.4419819155440348 -0.30750770780471437
decision_type=2 2 2 2 2 2 2 2 2 2 2 2 2 2 2 2 2 2 2
left_child=1 8 3 -3 -4 6 -6 -7 9 -1 -11 -12 13 18 15 -14 -10 -18 -2
right_child=12 2 4 -5 5 7 -8 -9 16 10 11 -13 14 -15 -16 -17 17 -19 -20
leaf_value=0.43779315108118894 -0.24766317421295603 0.040616726936647862 -0.25185540152864683 0.40970389861243456 0.43060099764436971 -0.33362068227972047 0.011800590093714239 -0.026870696370084331 0.14271045131761936 -0.17255943964434725 0.2866514761991184 0.07607274414371229 -0.13420027240793755 -0.40646521861661916 -0.16507573806349107 0.087069420740403372 -0.29882275618492599 -0.0080074467066510082 -0.010168320573015248
leaf_weight=307 304 582 480 301 304 329 472 10150 364 401 520 3684 469 306 541 1337 309 827 568
leaf_count=307 304 582 480 301 304 329 472 10150 364 401 520 3684 469 306 541 1337 309 827 568
internal_value=0 0.0119958 -0.0174084 0.166754 -0.0312787 -0.0218501 0.17621 -0.0365324 0.0698533 0.100783 0.0782251 0.102182 -0.0686767 -0.174816 -0.0153519 0.0295654 -0.0314297 -0.0873045 -0.0931535
internal_weight=0 19030 12618 883 11735 11255 776 10479 6412 4912 4605 4204 3525 1178 2347 1806 1500 1136 872
internal_count=22555 19030 12618 883 11735 11255 776 10479 6412 4912 4605 4204 3525 1178 2347 1806 1500 1136 872
is_linear=0
shrinkage=0.1


Tree=58
num_leaves=17
num_cat=0
split_feature=2 0 3 6 1 8 1 0 5 3 1 5 3 2 4 7
split_gain=1752.14 2197.69 2700.56 2263.41 2008.16 2834.51 1949.07 3363.06 6533.75 3328.79 2351.42 2724.91 2632.42 1362.96 938.401 869.297
threshold=-2.4225271747513921 1.252822273653609 0.31172996187365171 0.60830872162835614 -0.48237413919902566 0.63604499089686961 -0.32418314409830767 -1.6550577551902315 -0.0099015993579337717 -1.7593123881214672 -0.59310783576953552 -0.044639210498048316 -0.36903872360785001 0.23315504287780178 -0.046868388006304801 0.74489479297185512
decision_type=2 2 2 2 2 2 2 2 2 2 2 2 2 2 2 2
left_child=-1 3 14 6 15 -6 10 8 -8 -9 11 -2 -12 -5 -3 -4
right_child=1 2 4 13 5 -7 7 9 -10 -11 12 -13 -14 -15 -16 -17
leaf_value=0.21860267139263034 -0.062573393920744777 -0.14089834767214668 -0.2083141401284801 -0.044167352152878751 0.28743243556653048 -0.090880961092852555 0.5415273301285759 -0.34971775706429953 -0.036745904058802362 -0.014881827643318532 0.3383098517781632 0.087504792056429248 0.073500761572571169 -0.31530233895801235 -0.36379610336300322 -0.011393859803335358
leaf_weight=358 2144 389 523 424 385 406 316 304 509 11198 549 2774 1185 329 370 392
leaf_count=358 2144 389 523 424 385 406 316 304 509 11198 549 2774 1185 329 370 392
internal_value=0 -0.00409799 -0.0931033 0.00702506 -0.023242 0.0933843 0.0137748 -0.00976653 0.185138 -0.0237612 0.0573949 0.0220789 0.157488 -0.162892 -0.249893 -0.124055
internal_weight=0 22197 2465 19732 1706 791 18979 12327 825 11502 6652 4918 1734 753 759 915
internal_count=22555 22197 2465 19732 1706 791 18979 12327 825 11502 6652 4918 1734 753 759 915
is_linear=0
shrinkage=0.1


Tree=59
num_leaves=18
num_cat=0
split_feature=7 5 0 8 2 6 0 0 1 2 4 3 3 3 1 6 3
split_gain=1676.89 3250.93 2080.83 5340.3 1875.35 2160.81 2153.98 2055.27 2757.94 1810.81 2011.7 1133.71 932.462 876.508 788.324 681.201 1357.12
threshold=-1.5139345699003879 -1.6715173322266861 -0.2431755742899111 -1.5532996351116861 -1.2924317981073534 0.60830872162835614 1.1642936934121122 1.0876590292946642 -0.26090674605802411 0.7216334598841766 -1.4238116425969773 0.038178775659498142 -0.39718589041141222 0.58665577716425832 -0.94112802499110415 -0.4443101009234231 0.66127849845742348
decision_type=2 2 2 2 2 2 2 2 2 2 2 2 2 2 2 2 2
left_child=2 -2 3 -1 6 7 12 8 -6 10 -4 -7 -3 -14 -9 -8 -17
right_child=1 4 9 -5 5 11 15 14 -10 -11 -12 -13 13 -15 -16 16 -18
leaf_value=0.018549813005568769 -0.27398322790877544 0.33017641181946761 -0.23739983211846757 0.5200529031274348 0.059954879892166107 -0.31305373586472335 -0.12994120372342877 -0.23607275339172171 -0.029190974928212033 0.16899379349993049 0.074809896062366932 -0.050718048183969446 0.036200565340392767 0.25423237167719392 -0.074765061802433544 -0.026750965862228495 0.2141808524108432
leaf_weight=599 453 310 428 328 5504 357 319 390 9389 413 397 306 456 309 1354 932 311
leaf_count=599 453 310 428 328 5504 357 319 390 9389 413 397 306 456 309 1354 932 311
internal_value=0 -0.00938501 0.0831581 0.196366 -0.00335948 -0.0153347 0.0751801 -0.008274 0.00375644 -0.00170037 -0.087252 -0.192234 0.184053 0.124485 -0.110952 0.000182079 0.0336542
internal_weight=0 20390 2165 927 19937 17300 2637 16637 14893 1238 825 663 1075 765 1744 1562 1243
internal_count=22555 20390 2165 927 19937 17300 2637 16637 14893 1238 825 663 1075 765 1744 1562 1243
is_linear=0
shrinkage=0.1


Tree=60
num_leaves=12
num_cat=0
split_feature=3 3 6 5 2 4 3 3 0 5 1
split_gain=2122.81 2298.75 8714.63 2695.83 1496.01 2572.84 4008.39 2598.71 2499.96 2969.61 1435.03
threshold=-1.8212361550893041 -1.5976298253196106 0.35168486269966376 -2.0652102584812999 0.31164553222372032 -0.98019750394925798 -0.73547556027375849 1.0000000180025095e-35 -0.7829295974874938 0.2390512804795418 -0.30836404458823236
decision_type=2 2 2 2 2 2 2 2 2 2 2
left_child=-1 2 -2 -3 8 6 -6 -7 9 -5 -10
right_child=1 3 -4 4 5 7 -8 -9 10 -11 -12
leaf_value=-0.24328149464768423 0.59399688483750235 -0.28568012092833051 -0.065413676446669886 0.2638878177836706 -0.076623029104236129 -0.11774858576099836 0.22724559927365942 6.9882952784735175e-05 0.047824380299266236 0.011842191284264822 -0.029580728167884998
leaf_weight=354 304 332 584 884 837 3465 900 4071 4293 991 5415
leaf_count=354 304 332 584 884 837 3465 900 4071 4293 991 5415
internal_value=0 0.0032121 0.160745 -0.00339745 0.0011096 -0.0288219 0.080862 -0.0541107 0.0250722 0.130751 0.00465019
internal_weight=0 22076 888 21188 20856 9273 1737 7536 11583 1875 9708
